\data\
ngram 1=14
ngram 2=141
ngram 3=1520
ngram 4=10674
ngram 5=16670

\1-grams:
-2.00789	<unk>	0
0	<s>	-2.8811252
-1.112406	</s>	0
-1.074234	one	-0.89701587
-1.112406	zero	-0.86530143
-1.074234	nine	-0.89701587
-1.074234	seven	-0.89701587
-1.074234	five	-0.89701587
-1.074234	eight	-0.89701587
-1.074234	two	-0.89701587
-1.074234	six	-0.89701587
-1.074234	four	-0.89701587
-1.112406	oh	-0.86530143
-1.074234	three	-0.89701587

\2-grams:
-1.0771239	one </s>	0
-1.0504192	zero </s>	0
-1.0771239	nine </s>	0
-1.0771239	seven </s>	0
-1.0771239	five </s>	0
-1.0771239	eight </s>	0
-1.0771239	two </s>	0
-1.0771239	six </s>	0
-1.0771239	four </s>	0
-1.0504192	oh </s>	0
-1.0771239	three </s>	0
-1.041365	<s> one	-1.8020132
-1.0724856	one one	-0.6792259
-1.0457275	zero one	-0.69100106
-1.0724856	nine one	-0.70376885
-1.0724856	seven one	-0.7224511
-1.0724856	five one	-0.71321046
-1.0724856	eight one	-0.69897
-1.0724856	two one	-0.6842467
-1.0724856	six one	-0.73595357
-1.0724856	four one	-0.66380554
-1.0457275	oh one	-0.7415575
-1.0724856	three one	-0.6892102
-1.0417905	<s> zero	-1.8394209
-1.1152794	one zero	-0.6746107
-1.0504192	zero zero	-0.8239087
-1.1152794	nine zero	-0.68560606
-1.1152794	seven zero	-0.70679533
-1.1152794	five zero	-0.7170145
-1.1152794	eight zero	-0.69100106
-1.1152794	two zero	-0.7170145
-1.1152794	six zero	-0.70679533
-1.1152794	four zero	-0.68560606
-1.1152794	three zero	-0.711935
-1.0417459	<s> nine	-1.8016324
-1.0724856	one nine	-0.70376885
-1.0457275	zero nine	-0.73190606
-1.0724856	nine nine	-0.66900676
-1.0724856	seven nine	-0.6941175
-1.0724856	five nine	-0.70376885
-1.0724856	eight nine	-0.75332767
-1.0724856	two nine	-0.70851535
-1.0724856	six nine	-0.71321046
-1.0724856	four nine	-0.70851535
-1.0457275	oh nine	-0.66900676
-1.0724856	three nine	-0.7447275
-1.041365	<s> seven	-1.8020132
-1.0724856	one seven	-0.69897
-1.0457275	zero seven	-0.68560606
-1.0724856	nine seven	-0.71785533
-1.0724856	seven seven	-0.6941175
-1.0724856	five seven	-0.70376885
-1.0724856	eight seven	-0.69897
-1.0724856	two seven	-0.6941175
-1.0724856	six seven	-0.70851535
-1.0724856	four seven	-0.70851535
-1.0457275	oh seven	-0.69100106
-1.0724856	three seven	-0.70376885
-1.041365	<s> five	-1.8020132
-1.0724856	one five	-0.6842467
-1.0457275	zero five	-0.66900676
-1.0724856	nine five	-0.6892102
-1.0724856	seven five	-0.7224511
-1.0724856	five five	-0.6892102
-1.0724856	eight five	-0.70851535
-1.0724856	two five	-0.71321046
-1.0724856	six five	-0.69897
-1.0724856	four five	-0.72699875
-1.0457275	oh five	-0.6963299
-1.0724856	three five	-0.71785533
-1.041365	<s> eight	-1.8020132
-1.0724856	one eight	-0.70376885
-1.0457275	zero eight	-0.6963299
-1.0724856	nine eight	-0.73149925
-1.0724856	seven eight	-0.72699875
-1.0724856	five eight	-0.73595357
-1.0724856	eight eight	-0.6842467
-1.0724856	two eight	-0.6792259
-1.0724856	six eight	-0.70851535
-1.0724856	four eight	-0.72699875
-1.0457275	oh eight	-0.69100106
-1.0724856	three eight	-0.71321046
-1.041365	<s> two	-1.8016324
-1.0724856	one two	-0.7224511
-1.0457275	zero two	-0.73190606
-1.0724856	nine two	-0.70376885
-1.0724856	seven two	-0.71321046
-1.0724856	five two	-0.70851535
-1.0724856	eight two	-0.74036264
-1.0724856	two two	-0.7575647
-1.0724856	six two	-0.74036264
-1.0724856	four two	-0.6892102
-1.0457275	oh two	-0.65174776
-1.0724856	three two	-0.6941175
-1.041365	<s> six	-1.8020132
-1.0724856	one six	-0.71785533
-1.0457275	zero six	-0.70679533
-1.0724856	nine six	-0.73149925
-1.0724856	seven six	-0.70851535
-1.0724856	five six	-0.74036264
-1.0724856	eight six	-0.66900676
-1.0724856	two six	-0.65458906
-1.0724856	six six	-0.71785533
-1.0724856	four six	-0.6842467
-1.0457275	oh six	-0.7220353
-1.0724856	three six	-0.7224511
-1.0417459	<s> four	-1.8016324
-1.0724856	one four	-0.7224511
-1.0457275	zero four	-0.7201593
-1.0724856	nine four	-0.69897
-1.0724856	seven four	-0.6792259
-1.0724856	five four	-0.70851535
-1.0724856	eight four	-0.70376885
-1.0724856	two four	-0.6741464
-1.0724856	six four	-0.6741464
-1.0724856	four four	-0.71785533
-1.0457275	oh four	-0.66332966
-1.0724856	three four	-0.70376885
-1.0406489	<s> oh	-1.8405623
-1.1152794	one oh	-0.7170145
-1.1152794	nine oh	-0.7463039
-1.1152794	seven oh	-0.6963299
-1.1152794	five oh	-0.711935
-1.1152794	eight oh	-0.6963299
-1.1152794	two oh	-0.7647873
-1.1152794	six oh	-0.69100106
-1.1152794	four oh	-0.7367586
-1.0504192	oh oh	-0.8159398
-1.1152794	three oh	-0.73190606
-1.0417459	<s> three	-1.8016324
-1.0724856	one three	-0.7490488
-1.0457275	zero three	-0.7220353
-1.0724856	nine three	-0.72699875
-1.0724856	seven three	-0.7447275
-1.0724856	five three	-0.70376885
-1.0724856	eight three	-0.6892102
-1.0724856	two three	-0.71785533
-1.0724856	six three	-0.6842467
-1.0724856	four three	-0.70376885
-1.0457275	oh three	-0.7220353
-1.0724856	three three	-0.70376885

\3-grams:
-0.54405856	<s> one </s>	0
-0.8550595	one one </s>	0
-0.87179506	zero one </s>	0
-0.87960243	nine one </s>	0
-0.8982847	seven one </s>	0
-0.88904405	five one </s>	0
-0.9125687	eight one </s>	0
-0.86008036	two one </s>	0
-0.91178715	six one </s>	0
-0.8396391	four one </s>	0
-0.9223515	oh one </s>	0
-0.86504376	three one </s>	0
-0.54372835	<s> zero </s>	0
-0.8519218	one zero </s>	0
-1.0012199	zero zero </s>	0
-0.8629172	nine zero </s>	0
-0.8841065	seven zero </s>	0
-0.8943256	five zero </s>	0
-0.86831224	eight zero </s>	0
-0.8943256	two zero </s>	0
-0.8841065	six zero </s>	0
-0.8629172	four zero </s>	0
-0.88924617	three zero </s>	0
-0.54367775	<s> nine </s>	0
-0.87960243	one nine </s>	0
-0.91270006	zero nine </s>	0
-0.84484035	nine nine </s>	0
-0.86995107	seven nine </s>	0
-0.87960243	five nine </s>	0
-0.9291612	eight nine </s>	0
-0.88434887	two nine </s>	0
-0.88904405	six nine </s>	0
-0.88434887	four nine </s>	0
-0.8498008	oh nine </s>	0
-0.9205611	three nine </s>	0
-0.54405856	<s> seven </s>	0
-0.87480354	one seven </s>	0
-0.86640006	zero seven </s>	0
-0.8936889	nine seven </s>	0
-0.86995107	seven seven </s>	0
-0.87960243	five seven </s>	0
-0.87480354	eight seven </s>	0
-0.86995107	two seven </s>	0
-0.88434887	six seven </s>	0
-0.88434887	four seven </s>	0
-0.87179506	oh seven </s>	0
-0.87960243	three seven </s>	0
-0.54405856	<s> five </s>	0
-0.89784545	one five </s>	0
-0.8498008	zero five </s>	0
-0.86504376	nine five </s>	0
-0.8982847	seven five </s>	0
-0.86504376	five five </s>	0
-0.88434887	eight five </s>	0
-0.88904405	two five </s>	0
-0.87480354	six five </s>	0
-0.90283227	four five </s>	0
-0.87712395	oh five </s>	0
-0.8936889	three five </s>	0
-0.54405856	<s> eight </s>	0
-0.87960243	one eight </s>	0
-0.87712395	zero eight </s>	0
-0.9073328	nine eight </s>	0
-0.90283227	seven eight </s>	0
-0.91178715	five eight </s>	0
-0.89784545	eight eight </s>	0
-0.89282465	two eight </s>	0
-0.88434887	six eight </s>	0
-0.90283227	four eight </s>	0
-0.87179506	oh eight </s>	0
-0.88904405	three eight </s>	0
-0.545012	<s> two </s>	0
-0.8982847	one two </s>	0
-0.91270006	zero two </s>	0
-0.87960243	nine two </s>	0
-0.88904405	seven two </s>	0
-0.88434887	five two </s>	0
-0.9161962	eight two </s>	0
-0.93339825	two two </s>	0
-0.9161962	six two </s>	0
-0.86504376	four two </s>	0
-0.83254176	oh two </s>	0
-0.86995107	three two </s>	0
-0.54405856	<s> six </s>	0
-0.8936889	one six </s>	0
-0.88758934	zero six </s>	0
-0.9073328	nine six </s>	0
-0.88434887	seven six </s>	0
-0.9161962	five six </s>	0
-0.84484035	eight six </s>	0
-0.81970495	two six </s>	0
-0.931454	six six </s>	0
-0.86008036	four six </s>	0
-0.9028293	oh six </s>	0
-0.8982847	three six </s>	0
-0.54367775	<s> four </s>	0
-0.8982847	one four </s>	0
-0.88926345	zero four </s>	0
-0.9125687	nine four </s>	0
-0.8550595	seven four </s>	0
-0.88434887	five four </s>	0
-0.87960243	eight four </s>	0
-0.88774514	two four </s>	0
-0.84998	six four </s>	0
-0.8936889	four four </s>	0
-0.84412366	oh four </s>	0
-0.87960243	three four </s>	0
-0.5448697	<s> oh </s>	0
-0.8943256	one oh </s>	0
-0.92361504	nine oh </s>	0
-0.8736411	seven oh </s>	0
-0.88924617	five oh </s>	0
-0.8736411	eight oh </s>	0
-0.94209844	two oh </s>	0
-0.86831224	six oh </s>	0
-0.9140697	four oh </s>	0
-0.99325097	oh oh </s>	0
-0.90921724	three oh </s>	0
-0.54367775	<s> three </s>	0
-0.9248824	one three </s>	0
-0.9028293	zero three </s>	0
-0.90283227	nine three </s>	0
-0.9205611	seven three </s>	0
-0.87960243	five three </s>	0
-0.86504376	eight three </s>	0
-0.8936889	two three </s>	0
-0.86008036	six three </s>	0
-0.87960243	four three </s>	0
-0.9028293	oh three </s>	0
-0.87960243	three three </s>	0
-1.112688	<s> one one	-0.7019456
-1.233509	one one one	-0.25051117
-1.2186114	zero one one	-0.21655574
-1.0546881	nine one one	-0.34689924
-1.0733703	seven one one	-0.21729434
-1.488001	five one one	-0.29575258
-1.1744077	eight one one	-0.25575623
-1.035166	two one one	-0.22085798
-1.0868728	six one one	-0.3132077
-1.2180885	four one one	-0.31113216
-1.368382	oh one one	-0.35831043
-1.0979412	three one one	-0.2693201
-1.14317	<s> zero one	-0.70989925
-1.0479218	one zero one	-0.23450099
-1.0878696	zero zero one	-0.3462476
-1.1260184	nine zero one	-0.33709168
-1.1472077	seven zero one	-0.37160447
-1.1574268	five zero one	-0.25082117
-1.1314135	eight zero one	-0.36523813
-1.032218	two zero one	-0.36829472
-1.2266052	six zero one	-0.23140816
-1.0589172	four zero one	-0.21729434
-1.0271384	three zero one	-0.37385362
-1.1591496	<s> nine one	-0.65509003
-1.2580519	one nine one	-0.3828492
-1.1107699	zero nine one	-0.26919672
-1.2232897	nine nine one	-0.25051117
-0.99402434	seven nine one	-0.23450099
-1.1124998	five nine one	-0.22450836
-1.1042469	eight nine one	-0.30395883
-1.2627983	two nine one	-0.2311823
-1.0641296	six nine one	-0.2668691
-0.9627769	four nine one	-0.29928333
-1.1159065	oh nine one	-0.3335326
-0.95768815	three nine one	-0.41848356
-1.2509476	<s> seven one	-0.58711636
-1.107701	one seven one	-0.24793543
-1.0644699	zero seven one	-0.30690685
-0.9721169	nine seven one	-0.28497767
-0.94837904	seven seven one	-0.2689696
-1.2580519	five seven one	-0.3462476
-1.1744077	eight seven one	-0.29751435
-1.1695552	two seven one	-0.23450099
-1.0084221	six seven one	-0.2788499
-1.1172463	four seven one	-0.2957441
-1.1379008	oh seven one	-0.27944222
-1.1792066	three seven one	-0.4242419
-1.1486757	<s> five one	-0.6667123
-0.93850833	one five one	-0.2677859
-1.1966171	zero five one	-0.3024201
-0.989117	nine five one	-0.33210972
-1.0733703	seven five one	-0.2916926
-1.0979412	five five one	-0.27775204
-1.0594345	eight five one	-0.32950655
-1.1219414	two five one	-0.3014478
-1.107701	six five one	-0.29354483
-1.0779179	four five one	-0.2691183
-1.1432296	oh five one	-0.23450099
-1.0177622	three five one	-0.35331315
-1.1650614	<s> eight one	-0.6503219
-1.1792066	one eight one	-0.20414947
-1.0163867	zero eight one	-0.22326659
-1.0314062	nine eight one	-0.39545307
-1.0779179	seven eight one	-0.249479
-1.0868728	five eight one	-0.24403098
-1.1596844	eight eight one	-0.35831043
-0.93348753	two eight one	-0.33141103
-1.1839529	six eight one	-0.26919672
-1.2812817	four eight one	-0.2311823
-1.069865	oh eight one	-0.23450099
-1.2674934	three eight one	-0.22502792
-1.1429676	<s> two one	-0.6712768
-1.022358	one two one	-0.24793543
-1.1788058	zero two one	-0.3462476
-1.0546881	nine two one	-0.29739815
-1.1886481	seven two one	-0.2277256
-1.1172463	five two one	-0.29984352
-1.1490936	eight two one	-0.30166367
-1.0574715	two two one	-0.3857687
-1.2158003	six two one	-0.35831043
-1.0979412	four two one	-0.21655574
-1.2785723	oh two one	-0.25435138
-1.0450367	three two one	-0.26926312
-1.1706635	<s> six one	-0.6439537
-1.2721384	one six one	-0.23140816
-1.0856591	zero six one	-0.29354483
-1.0824184	nine six one	-0.20414947
-1.1172463	seven six one	-0.26735866
-1.0402695	five six one	-0.3640442
-1.1444445	eight six one	-0.17720579
-1.2003113	two six one	-0.21099803
-1.0687745	six six one	-0.29839796
-1.0929778	four six one	-0.21317331
-1.1689351	oh six one	-0.25954232
-1.1311821	three six one	-0.25082117
-1.1273669	<s> four one	-0.68841183
-1.1978887	one four one	-0.33979058
-1.5524638	zero four one	-0.2311823
-1.107701	nine four one	-0.25435138
-1.0879569	seven four one	-0.21729434
-1.1172463	five four one	-0.3283069
-1.1124998	eight four one	-0.3474212
-1.2284293	two four one	-0.20414951
-1.0250655	six four one	-0.39933014
-1.1265863	four four one	-0.38881385
-1.1102294	oh four one	-0.3691241
-1.0546881	three four one	-0.27606848
-1.206879	<s> oh one	-0.64734375
-1.2368243	one oh one	-0.22115642
-1.0102648	nine oh one	-0.35384053
-1.1367422	seven oh one	-0.26926312
-1.0271384	five oh one	-0.26926312
-1.1367422	eight oh one	-0.26902407
-1.0799907	two oh one	-0.24674767
-1.0062046	six oh one	-0.26735866
-1.0007194	four oh one	-0.45840412
-1.0340712	oh oh one	-0.35950494
-1.1052172	three oh one	-0.3018963
-1.2372075	<s> three one	-0.57930386
-1.0999681	one three one	-0.3040972
-1.0420921	zero three one	-0.3174464
-1.2024364	nine three one	-0.3335326
-0.99898905	seven three one	-0.33210972
-1.1124998	five three one	-0.29954332
-1.3398997	eight three one	-0.28825566
-1.1265863	two three one	-0.4163024
-1.2385297	six three one	-0.3569333
-1.1124998	four three one	-0.26735866
-1.0420921	oh three one	-0.25690016
-1.0546881	three three one	-0.32554305
-1.1887567	<s> one zero	-0.66615254
-1.1650944	one one zero	-0.3014478
-0.96571666	zero one zero	-0.38378876
-1.0624952	nine one zero	-0.37160447
-1.0811775	seven one zero	-0.27775204
-1.0719367	five one zero	-0.24418537
-1.1166312	eight one zero	-0.24418537
-1.101908	two one zero	-0.24418537
-1.1536148	six one zero	-0.24151175
-1.1496739	four one zero	-0.30578077
-1.0479364	three one zero	-0.2693201
-0.90778077	<s> zero zero	-0.94447064
-0.8519218	one zero zero	-0.34315023
-1.0427347	zero zero zero	-0.3438785
-0.8629172	nine zero zero	-0.38179663
-0.9256214	seven zero zero	-0.3597702
-0.9358405	five zero zero	-0.3671539
-1.0070733	eight zero zero	-0.28346273
-0.8943256	two zero zero	-0.34275022
-1.0810997	six zero zero	-0.2689696
-1.0016782	four zero zero	-0.3569333
-0.930761	three zero zero	-0.35064068
-1.1942943	<s> nine zero	-0.6594083
-1.1896373	one nine zero	-0.2783067
-1.1191009	zero nine zero	-0.246122
-1.0277331	nine nine zero	-0.3335326
-1.1117787	seven nine zero	-0.26919672
-1.3701692	five nine zero	-0.20414947
-1.0601695	eight nine zero	-0.294193
-1.1943837	two nine zero	-0.25435138
-1.1308717	six nine zero	-0.280583
-1.1943837	four nine zero	-0.29839796
-1.0052271	three nine zero	-0.26046807
-1.2067597	<s> seven zero	-0.64734375
-1.1848384	one seven zero	-0.19110739
-0.913403	zero seven zero	-0.24403098
-1.0765817	nine seven zero	-0.28435746
-1.1117787	seven seven zero	-0.33714524
-1.12143	five seven zero	-0.4242419
-1.1166312	eight seven zero	-0.30395883
-1.2609379	two seven zero	-0.29575258
-1.1261765	six seven zero	-0.18422891
-1.1261765	four seven zero	-0.29954332
-1.0624952	three seven zero	-0.3410954
-1.2451724	<s> five zero	-0.6081649
-1.350647	one five zero	-0.20414947
-0.85446334	zero five zero	-0.44264248
-1.1068714	nine five zero	-0.37757915
-1.2892716	seven five zero	-0.2957441
-1.1750786	five five zero	-0.2610615
-1.3749156	eight five zero	-0.23140816
-1.3796107	two five zero	-0.24248487
-1.1848384	six five zero	-0.42364204
-1.2128671	four five zero	-0.33141103
-1.1355165	three five zero	-0.2916926
-1.138834	<s> eight zero	-0.71432966
-1.0106107	one eight zero	-0.4025222
-1.0236537	zero eight zero	-0.41234124
-1.2173676	nine eight zero	-0.22397026
-1.2938192	seven eight zero	-0.306464
-1.0946798	five eight zero	-0.32410944
-1.350647	eight eight zero	-0.28414604
-1.1650944	two eight zero	-0.29870328
-1.1261765	six eight zero	-0.30690685
-1.0857251	four eight zero	-0.21729434
-1.0200523	three eight zero	-0.21729434
-1.1710894	<s> two zero	-0.6825761
-1.2083195	one two zero	-0.23140816
-0.959703	zero two zero	-0.32724905
-1.1896373	nine two zero	-0.3474212
-1.1990789	seven two zero	-0.21317331
-1.0153571	five two zero	-0.2033093
-1.0472045	eight two zero	-0.44188058
-1.0180644	two two zero	-0.42959642
-1.3071831	six two zero	-0.20414947
-0.99605197	four two zero	-0.26936942
-1.2609379	three two zero	-0.25435138
-1.1036209	<s> six zero	-0.7494941
-1.2037238	one six zero	-0.24614152
-0.93459225	zero six zero	-0.27775204
-1.2173676	nine six zero	-0.30166367
-1.0672417	seven six zero	-0.19208784
-1.0472045	five six zero	-0.36610675
-1.086668	eight six zero	-0.25082117
-1.0031992	two six zero	-0.30517885
-1.0765817	six six zero	-0.2516371
-1.101908	four six zero	-0.3444608
-1.2892716	three six zero	-0.2277256
-1.1767755	<s> four zero	-0.6777344
-1.1401123	one four zero	-0.2783067
-0.9363009	zero four zero	-0.26902407
-1.0576963	nine four zero	-0.4090848
-1.4750513	seven four zero	-0.2700609
-1.1261765	five four zero	-0.37129623
-1.12143	eight four zero	-0.21655574
-1.1600149	two four zero	-0.17870124
-1.1600149	six four zero	-0.4163024
-1.1355165	four four zero	-0.3082699
-1.12143	three four zero	-0.25885007
-1.1490617	<s> three zero	-0.70373654
-1.0558907	one three zero	-0.29928333
-0.9074918	zero three zero	-0.31041676
-0.94562787	nine three zero	-0.33115354
-1.1623887	seven three zero	-0.3829674
-1.1896373	five three zero	-0.1724093
-0.99605197	eight three zero	-0.39808846
-1.2037238	two three zero	-0.29839796
-1.101908	six three zero	-0.23450099
-1.12143	four three zero	-0.39740014
-1.12143	three three zero	-0.25575623
-1.224628	<s> one nine	-0.5922688
-1.3299155	one one nine	-0.20414947
-0.95927256	zero one nine	-0.33964932
-1.0546881	nine one nine	-0.29354483
-1.0733703	seven one nine	-0.33408096
-0.9261711	five one nine	-0.32930818
-1.0498892	eight one nine	-0.3882737
-1.0929778	two one nine	-0.3299035
-1.0868728	six one nine	-0.30690685
-1.2180885	four one nine	-0.2569305
-1.0616143	oh one nine	-0.3018963
-1.0401294	three one nine	-0.3829674
-1.1593597	<s> zero nine	-0.69287866
-0.9898141	one zero nine	-0.351872
-1.0878696	zero zero nine	-0.3303301
-1.2054158	nine zero nine	-0.2859392
-1.1472077	seven zero nine	-0.26735866
-1.0903256	five zero nine	-0.2957441
-1.0643122	eight zero nine	-0.24793543
-1.0903256	two zero nine	-0.37129623
-1.0801065	six zero nine	-0.361898
-1.0008094	four zero nine	-0.251999
-1.0852461	three zero nine	-0.37493378
-1.1482949	<s> nine nine	-0.6667123
-1.1792066	one nine nine	-0.39933014
-1.1788058	zero nine nine	-0.2801201
-1.3196963	nine nine nine	-0.2700609
-1.2484004	seven nine nine	-0.18422891
-1.1792066	five nine nine	-0.23952621
-1.3076106	eight nine nine	-0.23585603
-1.1839529	two nine nine	-0.33979058
-1.0131173	six nine nine	-0.29928333
-1.1839529	four nine nine	-0.29354483
-1.1966171	oh nine nine	-0.33979058
-1.0446343	three nine nine	-0.33941978
-1.1328859	<s> seven nine	-0.68174225
-1.253253	one seven nine	-0.25051117
-0.9538775	zero seven nine	-0.30747095
-1.0687745	nine seven nine	-0.3031515
-1.2484004	seven seven nine	-0.3474212
-1.1792066	five seven nine	-0.26735866
-1.107701	eight seven nine	-0.24793543
-1.1695552	two seven nine	-0.24190778
-1.1172463	six seven nine	-0.23713541
-1.1172463	four seven nine	-0.29839796
-1.069865	oh seven nine	-0.21729434
-1.1792066	three seven nine	-0.30465767
-1.1763389	<s> five nine	-0.6382765
-1.3349363	one five nine	-0.19208784
-1.0478706	zero five nine	-0.3474212
-1.0401294	nine five nine	-0.24923865
-1.1311821	seven five nine	-0.3474212
-1.1646478	five five nine	-0.31041676
-1.1172463	eight five nine	-0.21099803
-0.96747196	two five nine	-0.3031515
-1.1744077	six five nine	-0.3082699
-1.0779179	four five nine	-0.18422891
-1.3231544	oh five nine	-0.19862536
-1.1265863	three five nine	-0.33979058
-1.2647307	<s> eight nine	-0.54985464
-1.1124998	one eight nine	-0.35831043
-1.0751938	zero eight nine	-0.3640442
-0.9444599	nine eight nine	-0.27944222
-1.0779179	seven eight nine	-0.21317331
-1.0358604	five eight nine	-0.41624945
-0.93850833	eight eight nine	-0.30301845
-1.0879569	two eight nine	-0.29354483
-1.1172463	six eight nine	-0.2277256
-1.2024364	four eight nine	-0.18422891
-1.011058	oh eight nine	-0.36829472
-1.0131173	three eight nine	-0.2394062
-1.1482949	<s> two nine	-0.665948
-1.276734	one two nine	-0.28414604
-1.1107699	zero two nine	-0.26755112
-1.2580519	nine two nine	-0.20414947
-0.9261711	seven two nine	-0.42805168
-1.1839529	five two nine	-0.3238773
-0.95332336	eight two nine	-0.3014478
-1.1084839	two two nine	-0.37757915
-1.0912819	six two nine	-0.37757915
-1.2434931	four two nine	-0.25575623
-0.9200192	oh two nine	-0.35364097
-1.1695552	three two nine	-0.39740014
-1.1879172	<s> six nine	-0.6266947
-1.0687745	one six nine	-0.37757915
-1.0856591	zero six nine	-0.29954332
-1.0824184	nine six nine	-0.4620304
-1.4833058	seven six nine	-0.25575623
-1.1490936	five six nine	-0.4242419
-1.3196963	eight six nine	-0.2700609
-1.2003113	two six nine	-0.26926312
-1.0687745	six six nine	-0.29354483
-1.0929778	four six nine	-0.3283069
-1.1008991	oh six nine	-0.3335326
-1.1311821	three six nine	-0.26919672
-1.2643499	<s> four nine	-0.5521516
-1.1311821	one four nine	-0.29335314
-1.1568229	zero four nine	-0.30690685
-1.107701	nine four nine	-0.2668691
-1.0301452	seven four nine	-0.33811206
-1.0594345	five four nine	-0.21729434
-1.1792066	eight four nine	-0.23140816
-1.0250655	two four nine	-0.3335326
-1.2284293	six four nine	-0.23952621
-1.193293	four four nine	-0.2691183
-1.1102294	oh four nine	-0.2801201
-0.91672957	three four nine	-0.3270654
-1.149641	<s> oh nine	-0.7045704
-1.1574268	one oh nine	-0.2691183
-1.0102648	nine oh nine	-0.42805168
-0.9602908	seven oh nine	-0.25954232
-1.1523473	five oh nine	-0.29839796
-1.2161398	eight oh nine	-0.35831043
-1.0287482	two oh nine	-0.25806028
-1.0062046	six oh nine	-0.34166896
-1.051962	four oh nine	-0.27944222
-1.0799007	oh oh nine	-0.35645235
-1.1052172	three oh nine	-0.30395883
-1.2438358	<s> three nine	-0.5962746
-1.0489557	one three nine	-0.2788499
-1.0420921	zero three nine	-0.27832794
-1.2812817	nine three nine	-0.21655574
-1.1534585	seven three nine	-0.29994178
-1.0546881	five three nine	-0.23585603
-1.2434931	eight three nine	-0.20414947
-1.0177622	two three nine	-0.42805168
-1.1596844	six three nine	-0.30465767
-0.95803046	four three nine	-0.3361435
-1.1008991	oh three nine	-0.251999
-1.0546881	three three nine	-0.3100833
-1.1706635	<s> one seven	-0.6439537
-1.0879569	one one seven	-0.19026159
-1.1379008	zero one seven	-0.30166367
-1.0036757	nine one seven	-0.3640442
-1.1978887	seven one seven	-0.3474212
-1.1886481	five one seven	-0.22085798
-1.107701	eight one seven	-0.30690685
-1.3349363	two one seven	-0.25264043
-1.0868728	six one seven	-0.2801201
-1.0725366	four one seven	-0.2693201
-1.0616143	oh one seven	-0.21729434
-1.0401294	three one seven	-0.23050484
-1.14317	<s> zero seven	-0.70906544
-1.1944206	one zero seven	-0.29335314
-1.0420401	zero zero seven	-0.2688648
-1.0589172	nine zero seven	-0.31041676
-1.2266052	seven zero seven	-0.25264043
-1.032218	five zero seven	-0.22888681
-1.1314135	eight zero seven	-0.25435138
-1.032218	two zero seven	-0.30578077
-1.0219988	six zero seven	-0.28090364
-1.0589172	four zero seven	-0.22326659
-1.0852461	three zero seven	-0.2957441
-1.205504	<s> nine seven	-0.63380975
-1.1792066	one nine seven	-0.25575623
-1.051963	zero nine seven	-0.21317331
-1.1444445	nine nine seven	-0.20414951
-1.0450367	seven nine seven	-0.22397026
-0.95803046	five nine seven	-0.30395883
-1.0532346	eight nine seven	-0.42660242
-1.0084221	two nine seven	-0.32187206
-1.1219414	six nine seven	-0.26902407
-1.0084221	four nine seven	-0.37385362
-1.1159065	oh nine seven	-0.23303273
-1.0956466	three nine seven	-0.26735866
-1.1763389	<s> seven seven	-0.663365
-1.107701	one seven seven	-0.29839796
-1.0644699	zero seven seven	-0.3862862
-1.3685448	nine seven seven	-0.24778886
-1.1028485	seven seven seven	-0.30578077
-1.0036757	five seven seven	-0.2693201
-1.1744077	eight seven seven	-0.2957441
-0.99402434	two seven seven	-0.21729434
-1.0084221	six seven seven	-0.2788499
-1.0594345	four seven seven	-0.3640442
-1.1379008	oh seven seven	-0.2913637
-1.2580519	three seven seven	-0.3828492
-1.1879172	<s> five seven	-0.6282246
-1.035166	one five seven	-0.33114165
-1.2958313	zero five seven	-0.25435138
-1.2434931	nine five seven	-0.3299035
-1.022358	seven five seven	-0.2693201
-1.1646478	five five seven	-0.33714524
-1.1839529	eight five seven	-0.27775204
-0.96747196	two five seven	-0.37160447
-1.107701	six five seven	-0.2693201
-1.0779179	four five seven	-0.39666012
-1.1432296	oh five seven	-0.25051117
-1.193293	three five seven	-0.19208784
-1.1998127	<s> eight seven	-0.61479545
-1.0546881	one eight seven	-0.34810317
-1.2239403	zero eight seven	-0.25051117
-1.2857822	nine eight seven	-0.3462476
-1.0779179	seven eight seven	-0.23450099
-1.0358604	five eight seven	-0.33042616
-1.0929778	eight eight seven	-0.22085798
-1.1546636	two eight seven	-0.33141103
-0.9627769	six eight seven	-0.2668691
-1.0779179	four eight seven	-0.38585347
-1.069865	oh eight seven	-0.2801201
-1.1886481	three eight seven	-0.23050484
-1.2179091	<s> two seven	-0.59631205
-1.0733703	one two seven	-0.27775204
-1.2595164	zero two seven	-0.22502792
-1.0036757	nine two seven	-0.27535737
-1.1886481	seven two seven	-0.37493378
-1.0594345	five two seven	-0.3829674
-1.0402695	eight two seven	-0.37038034
-1.0574715	two two seven	-0.2557533
-1.0912819	six two seven	-0.42364204
-1.3398997	four two seven	-0.25575623
-1.0306116	oh two seven	-0.24793543
-1.1028485	three two seven	-0.33979058
-1.1380856	<s> six seven	-0.67654103
-1.193293	one six seven	-0.29839796
-0.9750668	zero six seven	-0.19110739
-1.206937	nine six seven	-0.26713422
-1.1839529	seven six seven	-0.3335326
-1.0402695	five six seven	-0.38745114
-1.0777377	eight six seven	-0.25082117
-0.99557024	two six seven	-0.2957441
-1.1265863	six six seven	-0.2691183
-1.3349363	four six seven	-0.23585603
-1.1689351	oh six seven	-0.23050484
-1.1311821	three six seven	-0.35183528
-1.1482949	<s> four seven	-0.665948
-1.0733703	one four seven	-0.251999
-1.0291857	zero four seven	-0.31482574
-1.107701	nine four seven	-0.21099803
-1.0879569	seven four seven	-0.31658164
-1.1839529	five four seven	-0.29839796
-1.1124998	eight four seven	-0.2691183
-1.0250655	two four seven	-0.3828492
-1.149584	six four seven	-0.24248487
-1.1265863	four four seven	-0.18422891
-1.1102294	oh four seven	-0.27726737
-0.95803046	three four seven	-0.246122
-1.2192909	<s> oh seven	-0.6341006
-0.98097545	one oh seven	-0.33718222
-1.1196151	nine oh seven	-0.4090848
-1.1367422	seven oh seven	-0.23140816
-1.0271384	five oh seven	-0.21099803
-1.0115334	eight oh seven	-0.3132913
-1.0799907	two oh seven	-0.31041676
-1.3080455	six oh seven	-0.25575623
-1.051962	four oh seven	-0.33114165
-1.0340712	oh oh seven	-0.2858504
-1.0471095	three oh seven	-0.34573245
-1.1875364	<s> three seven	-0.627459
-1.0999681	one three seven	-0.4242419
-1.1689351	zero three seven	-0.23952621
-1.2024364	nine three seven	-0.23713541
-1.2201651	seven three seven	-0.24793543
-1.0546881	five three seven	-0.3640442
-1.0979412	eight three seven	-0.25575623
-1.193293	two three seven	-0.2957441
-1.1596844	six three seven	-0.29839796
-1.0036757	four three seven	-0.3098904
-1.1689351	oh three seven	-0.26926312
-1.2580519	three three seven	-0.35831043
-1.1486757	<s> one five	-0.665948
-1.1546636	one one five	-0.2957441
-1.069865	zero one five	-0.16054815
-1.1124998	nine one five	-0.29839796
-1.276734	seven one five	-0.22115642
-1.1219414	five one five	-0.49987254
-0.99887687	eight one five	-0.37872955
-1.035166	two one five	-0.44188058
-1.1446846	six one five	-0.19862536
-1.0725366	four one five	-0.28414604
-1.0616143	oh one five	-0.22085798
-1.0979412	three one five	-0.37493378
-1.1761764	<s> zero five	-0.676899
-0.9898141	one zero five	-0.3335326
-1.0420401	zero zero five	-0.41093224
-1.0589172	nine zero five	-0.33408096
-1.1472077	seven zero five	-0.33408096
-1.1574268	five zero five	-0.28414604
-0.95496196	eight zero five	-0.2858713
-1.1574268	two zero five	-0.2957441
-1.0801065	six zero five	-0.22326659
-1.1260184	four zero five	-0.33714524
-1.0852461	three zero five	-0.30166367
-1.2242471	<s> nine five	-0.5922688
-1.0036757	one nine five	-0.37160447
-1.051963	zero nine five	-0.30690685
-1.1444445	nine nine five	-0.31041676
-1.1028485	seven nine five	-0.3130883
-1.1792066	five nine five	-0.25435138
-1.1042469	eight nine five	-0.26936942
-1.0594345	two nine five	-0.3283069
-1.0131173	six nine five	-0.2858713
-1.0084221	four nine five	-0.2693201
-1.2958313	oh nine five	-0.20414947
-1.2201651	three nine five	-0.3474212
-1.2310598	<s> seven five	-0.58430207
-1.0498892	one seven five	-0.36829472
-1.0644699	zero seven five	-0.29928333
-1.193293	nine seven five	-0.29354483
-1.0450367	seven seven five	-0.22326659
-1.1124998	five seven five	-0.25934908
-1.0498892	eight seven five	-0.33408096
-0.99402434	two seven five	-0.351872
-1.1839529	six seven five	-0.25051117
-1.1839529	four seven five	-0.21729434
-1.2186114	oh seven five	-0.2957441
-1.0546881	three seven five	-0.23450099
-1.1650614	<s> five five	-0.6503219
-1.0929778	one five five	-0.23140816
-1.0478706	zero five five	-0.29575258
-1.0979412	nine five five	-0.26926312
-1.022358	seven five five	-0.293665
-1.1646478	five five five	-0.23585603
-1.1172463	eight five five	-0.26902407
-1.1886481	two five five	-0.37757915
-1.107701	six five five	-0.31933942
-1.2024364	four five five	-0.25051117
-1.0751938	oh five five	-0.26713422
-0.9721169	three five five	-0.28640932
-1.2058848	<s> eight five	-0.61025125
-1.1792066	one eight five	-0.23585603
-1.2239403	zero eight five	-0.28825566
-1.206937	nine eight five	-0.2916926
-1.0269055	seven eight five	-0.27726737
-1.2113912	five eight five	-0.19208784
-1.1596844	eight eight five	-0.21317331
-1.1546636	two eight five	-0.24793543
-0.9627769	six eight five	-0.4151521
-1.1357297	four eight five	-0.33979058
-1.1379008	oh eight five	-0.2569305
-0.9261711	three eight five	-0.20047702
-1.2242471	<s> two five	-0.6150603
-1.1311821	one two five	-0.26919672
-1.051963	zero two five	-0.2873904
-1.1792066	nine two five	-0.361898
-1.1219414	seven two five	-0.21317331
-1.0594345	five two five	-0.2789475
-1.2946457	eight two five	-0.23585603
-1.0118263	two two five	-0.3014478
-1.1490936	six two five	-0.37757915
-0.9434717	four two five	-0.3100833
-1.1793581	oh two five	-0.28414604
-0.94837904	three two five	-0.21343449
-1.1938242	<s> six five	-0.6207858
-1.0687745	one six five	-0.2783067
-1.1536951	zero six five	-0.25435138
-0.9857608	nine six five	-0.2880235
-1.0594345	seven six five	-0.4004794
-1.0912819	five six five	-0.29928333
-1.1444445	eight six five	-0.21099803
-1.5030019	two six five	-0.23585603
-1.0687745	six six five	-0.25806028
-0.93850833	four six five	-0.40868777
-0.9903068	oh six five	-0.36610675
-1.0733703	three six five	-0.3335326
-1.230679	<s> four five	-0.60701114
-1.1978887	one four five	-0.20414947
-0.9306646	zero four five	-0.24408546
-0.99887687	nine four five	-0.3882737
-1.0301452	seven four five	-0.29574674
-1.0594345	five four five	-0.27775204
-1.1124998	eight four five	-0.33979058
-1.2284293	two four five	-0.19862536
-0.92840797	six four five	-0.32731205
-1.1265863	four four five	-0.23303273
-1.19094	oh four five	-0.2859392
-1.2580519	three four five	-0.28414604
-1.206879	<s> oh five	-0.64734375
-1.0903256	one oh five	-0.19208784
-1.0615073	nine oh five	-0.32731205
-1.1367422	seven oh five	-0.3474212
-1.2317448	five oh five	-0.361898
-0.9602908	eight oh five	-0.4096959
-1.0799907	two oh five	-0.39740014
-1.0062046	six oh five	-0.38881385
-1.051962	four oh five	-0.26926312
-1.0799007	oh oh five	-0.33417594
-0.9085859	three oh five	-0.34649926
-1.230679	<s> three five	-0.5835378
-0.9242975	one three five	-0.32514477
-1.2496456	zero three five	-0.33114165
-1.1357297	nine three five	-0.30578077
-1.0446343	seven three five	-0.31069484
-1.1124998	five three five	-0.25435138
-0.989117	eight three five	-0.33141103
-1.0177622	two three five	-0.32554305
-1.0929778	six three five	-0.29354483
-1.1124998	four three five	-0.37757915
-0.9903068	oh three five	-0.36829472
-0.95803046	three three five	-0.39045483
-1.2375884	<s> one eight	-0.57777125
-1.0879569	one one eight	-0.3361435
-1.069865	zero one eight	-0.49987254
-1.3544585	nine one eight	-0.2700609
-1.0733703	seven one eight	-0.249479
-0.96747196	five one eight	-0.23525679
-1.0498892	eight one eight	-0.36829472
-1.035166	two one eight	-0.23450099
-1.1446846	six one eight	-0.22085798
-1.2180885	four one eight	-0.23713541
-1.0098289	oh one eight	-0.309181
-1.4640007	three one eight	-0.29575258
-1.1538957	<s> zero eight	-0.7240131
-1.2916551	one zero eight	-0.22502792
-1.0005885	zero zero eight	-0.34478167
-1.0008094	nine zero eight	-0.33979058
-0.92492676	seven zero eight	-0.2801201
-1.032218	five zero eight	-0.4090848
-1.0643122	eight zero eight	-0.23450099
-1.1574268	two zero eight	-0.25264043
-1.0219988	six zero eight	-0.30747095
-1.0589172	four zero eight	-0.37757915
-1.0852461	three zero eight	-0.28687876
-1.2574037	<s> nine eight	-0.5802769
-0.95803046	one nine eight	-0.34593844
-1.0001775	zero nine eight	-0.33803126
-1.3196963	nine nine eight	-0.2700609
-1.0450367	seven nine eight	-0.251999
-1.1124998	five nine eight	-0.32056513
-1.1042469	eight nine eight	-0.35384053
-1.1172463	two nine eight	-0.3474212
-1.1886481	six nine eight	-0.25575623
-1.0594345	four nine eight	-0.3283069
-1.0478706	oh nine eight	-0.26655123
-1.2201651	three nine eight	-0.246122
-1.2375884	<s> seven eight	-0.60048026
-0.9532316	one seven eight	-0.39536667
-1.2132164	zero seven eight	-0.29839796
-1.0687745	nine seven eight	-0.2783067
-1.2484004	seven seven eight	-0.26902407
-1.1792066	five seven eight	-0.3335326
-1.107701	eight seven eight	-0.26713422
-1.0450367	two seven eight	-0.23140816
-1.1172463	six seven eight	-0.26755112
-1.1839529	four seven eight	-0.28090364
-1.011058	oh seven eight	-0.2620523
-1.0036757	three seven eight	-0.22560777
-1.1998127	<s> five eight	-0.61555976
-1.035166	one five eight	-0.2691183
-1.1159065	zero five eight	-0.2913637
-1.0401294	nine five eight	-0.52233887
-0.97671264	seven five eight	-0.29928333
-0.989117	five five eight	-0.22085798
-0.9627769	eight five eight	-0.35348353
-1.0131173	two five eight	-0.23450099
-1.107701	six five eight	-0.23525679
-1.0269055	four five eight	-0.25304094
-1.0751938	oh five eight	-0.25264043
-1.193293	three five eight	-0.2277256
-1.2182899	<s> eight eight	-0.6197854
-1.1124998	one eight eight	-0.38837296
-1.0163867	zero eight eight	-0.41234124
-1.1402302	nine eight eight	-0.24793543
-0.9812603	seven eight eight	-0.37846458
-1.0358604	five eight eight	-0.20306954
-1.3349363	eight eight eight	-0.22502792
-1.233509	two eight eight	-0.19550002
-1.0594345	six eight eight	-0.3035963
-1.2024364	four eight eight	-0.22115642
-1.069865	oh eight eight	-0.25435138
-1.0131173	three eight eight	-0.3410954
-1.1702827	<s> two eight	-0.644718
-1.022358	one two eight	-0.36829472
-1.1788058	zero two eight	-0.32410944
-1.1124998	nine two eight	-0.20835297
-0.96747196	seven two eight	-0.3838642
-1.0084221	five two eight	-0.195643
-1.0912819	eight two eight	-0.30690685
-1.2330023	two two eight	-0.2859392
-0.95332336	six two eight	-0.39413548
-1.0979412	four two eight	-0.4026908
-1.0986475	oh two eight	-0.23585603
-1.0450367	three two eight	-0.30465767
-1.1938242	<s> six eight	-0.64506596
-1.0177622	one six eight	-0.4845503
-1.0268521	zero six eight	-0.30578077
-1.0314062	nine six eight	-0.28090364
-0.9627769	seven six eight	-0.32684308
-1.1490936	five six eight	-0.29954332
-1.1444445	eight six eight	-0.246122
-1.1208539	two six eight	-0.19208784
-1.0687745	six six eight	-0.3014478
-1.2385297	four six eight	-0.2859392
-1.0420921	oh six eight	-0.32554305
-1.1311821	three six eight	-0.25435138
-1.2505667	<s> four eight	-0.5644073
-1.0733703	one four eight	-0.37129623
-1.2381752	zero four eight	-0.23952621
-1.1744077	nine four eight	-0.3299035
-1.0879569	seven four eight	-0.29954332
-1.1839529	five four eight	-0.23713541
-1.1792066	eight four eight	-0.2668691
-0.97405326	two four eight	-0.3283069
-1.0250655	six four eight	-0.31159568
-1.0177622	four four eight	-0.306464
-0.93160105	oh four eight	-0.32684308
-1.1124998	three four eight	-0.39666012
-1.1773179	<s> oh eight	-0.67606515
-1.0903256	one oh eight	-0.36590374
-1.1196151	nine oh eight	-0.26926312
-1.0115334	seven oh eight	-0.3283069
-1.0852461	five oh eight	-0.2957441
-1.069641	eight oh eight	-0.3474212
-1.0287482	two oh eight	-0.3283069
-1.0062046	six oh eight	-0.29839796
-1.177171	four oh eight	-0.24793543
-1.189251	oh oh eight	-0.3014478
-1.2517159	three oh eight	-0.33979058
-1.1222887	<s> three eight	-0.6927258
-1.1577799	one three eight	-0.25435138
-1.2496456	zero three eight	-0.25435138
-1.0779179	nine three eight	-0.2789475
-1.0446343	seven three eight	-0.32950655
-0.95803046	five three eight	-0.38186926
-1.2434931	eight three eight	-0.21655574
-1.0687745	two three eight	-0.25051117
-1.0929778	six three eight	-0.32410944
-1.1124998	four three eight	-0.25082117
-1.1008991	oh three eight	-0.22326659
-1.3544585	three three eight	-0.18422891
-1.2375884	<s> one two	-0.60048026
-1.0879569	one one two	-0.246122
-1.2186114	zero one two	-0.2277256
-1.0546881	nine one two	-0.2884968
-1.022358	seven one two	-0.42364204
-1.0641296	five one two	-0.28417966
-1.107701	eight one two	-0.3014478
-1.035166	two one two	-0.25304094
-0.9902151	six one two	-0.31113216
-1.0725366	four one two	-0.3014478
-1.1204213	oh one two	-0.195643
-1.1646478	three one two	-0.2277256
-1.2181495	<s> zero two	-0.6349345
-1.115023	one zero two	-0.23303273
-1.0420401	zero zero two	-0.34424102
-1.1260184	nine zero two	-0.3828492
-1.0219988	seven zero two	-0.30517885
-1.1574268	five zero two	-0.26919672
-1.1314135	eight zero two	-0.23713541
-1.032218	two zero two	-0.2691183
-0.97075623	six zero two	-0.30395883
-1.1260184	four zero two	-0.20414947
-0.9300664	three zero two	-0.2615857
-1.1482949	<s> nine two	-0.665948
-0.95803046	one nine two	-0.26926312
-1.0001775	zero nine two	-0.42364204
-1.019926	nine nine two	-0.3337999
-1.1695552	seven nine two	-0.29354483
-1.0546881	five nine two	-0.29354483
-1.0532346	eight nine two	-0.2901112
-1.0594345	two nine two	-0.15526196
-1.1886481	six nine two	-0.29354483
-1.0594345	four nine two	-0.31041676
-1.1159065	oh nine two	-0.33714524
-1.2990104	three nine two	-0.20414947
-1.1328859	<s> seven two	-0.70521563
-1.253253	one seven two	-0.29839796
-1.2132164	zero seven two	-0.24418537
-0.9721169	nine seven two	-0.34689924
-1.344807	seven seven two	-0.21655574
-1.0546881	five seven two	-0.26655123
-1.0498892	eight seven two	-0.41624945
-0.99402434	two seven two	-0.36049157
-1.1172463	six seven two	-0.36590374
-1.0594345	four seven two	-0.2546094
-1.2186114	oh seven two	-0.28271678
-1.0036757	three seven two	-0.29954332
-1.1706635	<s> five two	-0.66742706
-1.0929778	one five two	-0.27944222
-1.2958313	zero five two	-0.2700609
-1.2434931	nine five two	-0.2957441
-1.0733703	seven five two	-0.29928333
-1.0979412	five five two	-0.2957441
-1.0084221	eight five two	-0.3132077
-0.96747196	two five two	-0.2693201
-1.107701	six five two	-0.29870328
-1.0779179	four five two	-0.28090364
-0.96460134	oh five two	-0.21775652
-1.0177622	three five two	-0.21913609
-1.3410877	<s> eight two	-0.49693966
-1.1124998	one eight two	-0.2277256
-1.0163867	zero eight two	-0.2916926
-1.0314062	nine eight two	-0.309181
-0.9812603	seven eight two	-0.21729434
-1.2113912	five eight two	-0.3335326
-0.93850833	eight eight two	-0.40868777
-0.93348753	two eight two	-0.33263865
-1.1839529	six eight two	-0.22085798
-0.9812603	four eight two	-0.2886437
-1.011058	oh eight two	-0.37757915
-1.0131173	three eight two	-0.27944222
-1.3008525	<s> two two	-0.5376179
-1.276734	one two two	-0.2694126
-1.051963	zero two two	-0.27944222
-1.0546881	nine two two	-0.24793543
-1.1219414	seven two two	-0.3014478
-1.1839529	five two two	-0.20009162
-1.0402695	eight two two	-0.35384053
-1.1084839	two two two	-0.38881385
-1.0912819	six two two	-0.3299035
-0.989117	four two two	-0.21416543
-1.2785723	oh two two	-0.23952621
-1.344807	three two two	-0.25264043
-1.2647307	<s> six two	-0.5521516
-1.0177622	one six two	-0.29994178
-1.0268521	zero six two	-0.3774917
-1.206937	nine six two	-0.4242419
-1.1839529	seven six two	-0.3299035
-1.0402695	five six two	-0.25954232
-1.1444445	eight six two	-0.19026159
-1.05371	two six two	-0.26919672
-1.1265863	six six two	-0.37129623
-0.9841536	four six two	-0.2597909
-0.9903068	oh six two	-0.27944222
-1.022358	three six two	-0.21729434
-1.1429676	<s> four two	-0.6947502
-1.1978887	one four two	-0.2957441
-1.2381752	zero four two	-0.25264043
-0.99887687	nine four two	-0.36262757
-1.0879569	seven four two	-0.2957441
-1.1172463	five four two	-0.37129623
-1.0546881	eight four two	-0.249479
-0.97405326	two four two	-0.28640932
-1.149584	six four two	-0.33714524
-1.193293	four four two	-0.26926312
-1.19094	oh four two	-0.30465767
-1.3544585	three four two	-0.19550002
-1.1660347	<s> oh two	-0.7130177
-1.0903256	one oh two	-0.38585347
-1.0615073	nine oh two	-0.23151362
-1.1367422	seven oh two	-0.29839796
-0.9758959	five oh two	-0.3361435
-1.0115334	eight oh two	-0.33714524
-1.2051996	two oh two	-0.46745494
-1.0643122	six oh two	-0.49987254
-1.0007194	four oh two	-0.33803126
-1.0340712	oh oh two	-0.30510658
-1.4744308	three oh two	-0.17720579
-1.1172693	<s> three two	-0.6977465
-1.0999681	one three two	-0.2801201
-1.1689351	zero three two	-0.4163024
-1.0779179	nine three two	-0.38881385
-1.1534585	seven three two	-0.26902407
-1.1124998	five three two	-0.28155082
-1.1646478	eight three two	-0.26902407
-1.0687745	two three two	-0.23713541
-1.035166	six three two	-0.23450099
-1.1124998	four three two	-0.251999
-1.0420921	oh three two	-0.3361435
-1.0036757	three three two	-0.41848356
-1.2509476	<s> one six	-0.5879231
-1.233509	one one six	-0.29839796
-1.069865	zero one six	-0.30395883
-1.1124998	nine one six	-0.3361435
-1.022358	seven one six	-0.29354483
-1.0641296	five one six	-0.27684012
-1.0498892	eight one six	-0.32554305
-1.0929778	two one six	-0.19862536
-1.0868728	six one six	-0.30395883
-1.1392432	four one six	-0.2783067
-0.96356577	oh one six	-0.2688414
-1.0979412	three one six	-0.2277256
-1.2788614	<s> zero six	-0.57674783
-1.1944206	one zero six	-0.3335326
-1.0005885	zero zero six	-0.31171596
-1.0589172	nine zero six	-0.23050484
-0.92492676	seven zero six	-0.21729434
-0.98097545	five zero six	-0.26738566
-1.0643122	eight zero six	-0.33709168
-1.032218	two zero six	-0.23450099
-1.1472077	six zero six	-0.21099803
-1.3026505	four zero six	-0.3299035
-1.3289794	three zero six	-0.19550002
-1.2242471	<s> nine six	-0.61425203
-0.95803046	one nine six	-0.28435746
-1.0001775	zero nine six	-0.32554305
-0.9689136	nine nine six	-0.24906677
-1.1028485	seven nine six	-0.19832018
-1.0036757	five nine six	-0.27944222
-1.2287652	eight nine six	-0.23140816
-1.2627983	two nine six	-0.25264043
-1.0641296	six nine six	-0.2691183
-1.0594345	four nine six	-0.3335326
-0.9890636	oh nine six	-0.29354483
-0.95768815	three nine six	-0.3326621
-1.2182899	<s> seven six	-0.59631205
-1.1744077	one seven six	-0.25051117
-1.1325058	zero seven six	-0.30395883
-1.1265863	nine seven six	-0.38585347
-1.1028485	seven seven six	-0.23140816
-0.95803046	five seven six	-0.33210972
-1.107701	eight seven six	-0.21343449
-1.1028485	two seven six	-0.20722803
-1.1839529	six seven six	-0.24793543
-1.2627983	four seven six	-0.3299035
-0.95927256	oh seven six	-0.27775204
-1.1792066	three seven six	-0.30395883
-1.1879172	<s> five six	-0.627459
-1.0929778	one five six	-0.26713422
-0.9372782	zero five six	-0.36262757
-1.0979412	nine five six	-0.21655574
-1.276734	seven five six	-0.23952621
-1.0979412	five five six	-0.3335326
-1.1172463	eight five six	-0.3335326
-1.1886481	two five six	-0.20414951
-0.9532316	six five six	-0.25082117
-1.0779179	four five six	-0.22502792
-1.0163867	oh five six	-0.26713422
-1.0687745	three five six	-0.3014478
-1.1380856	<s> eight six	-0.6773054
-1.1124998	one eight six	-0.37757915
-1.0163867	zero eight six	-0.23722868
-1.0824184	nine eight six	-0.32612577
-1.2812817	seven eight six	-0.2913637
-1.0358604	five eight six	-0.3283069
-1.035166	eight eight six	-0.31466654
-1.1546636	two eight six	-0.4090848
-1.1839529	six eight six	-0.23140816
-1.1357297	four eight six	-0.49987254
-1.1379008	oh eight six	-0.3024201
-1.1886481	three eight six	-0.2916926
-1.1222887	<s> two six	-0.6919614
-0.97671264	one two six	-0.4163024
-0.9121085	zero two six	-0.28497767
-1.0546881	nine two six	-0.3100833
-1.1886481	seven two six	-0.30395883
-1.1839529	five two six	-0.41639066
-1.1490936	eight two six	-0.33941978
-1.3118477	two two six	-0.16252813
-1.0402695	six two six	-0.42660242
-1.3398997	four two six	-0.21099803
-1.1793581	oh two six	-0.2913637
-1.1695552	three two six	-0.3335326
-1.2717899	<s> six six	-0.5435571
-0.9721169	one six six	-0.3335326
-0.9288037	zero six six	-0.30578077
-1.0314062	nine six six	-0.28640932
-1.0594345	seven six six	-0.3361435
-1.0402695	five six six	-0.3100833
-1.019926	eight six six	-0.29354483
-1.1208539	two six six	-0.2957441
-1.1265863	six six six	-0.21655574
-1.2385297	four six six	-0.18422891
-1.1008991	oh six six	-0.195643
-1.0733703	three six six	-0.28090364
-1.1934434	<s> four six	-0.62155014
-0.97671264	one four six	-0.339148
-1.088332	zero four six	-0.26919672
-1.253253	nine four six	-0.37493378
-1.0879569	seven four six	-0.29354483
-1.0594345	five four six	-0.42364204
-1.0546881	eight four six	-0.36610675
-1.0828774	two four six	-0.30395883
-1.2284293	six four six	-0.21099803
-1.0177622	four four six	-0.35357264
-0.93160105	oh four six	-0.2899429
-1.2580519	three four six	-0.19862536
-1.2256324	<s> oh six	-0.62776047
-0.9351459	one oh six	-0.23722868
-1.0615073	nine oh six	-0.20722803
-1.2161398	seven oh six	-0.20414947
-0.9758959	five oh six	-0.2858713
-1.2161398	eight oh six	-0.26755112
-0.98291874	two oh six	-0.31482574
-1.0062046	six oh six	-0.22587559
-0.95488995	four oh six	-0.36610675
-0.99261963	oh oh six	-0.37764165
-1.0471095	three oh six	-0.2691183
-1.230679	<s> three six	-0.6086262
-1.1577799	one three six	-0.23713541
-0.9903068	zero three six	-0.30578077
-0.9812603	nine three six	-0.3084588
-0.99898905	seven three six	-0.3014478
-1.1792066	five three six	-0.30166367
-1.0979412	eight three six	-0.26735866
-1.1265863	two three six	-0.2859392
-1.1596844	six three six	-0.26713422
-1.1124998	four three six	-0.35563907
-1.1008991	oh three six	-0.33141103
-1.1124998	three three six	-0.25885007
-1.1433483	<s> one four	-0.6712768
-0.93348753	one one four	-0.27726737
-1.1379008	zero one four	-0.2957441
-1.2580519	nine one four	-0.23140816
-1.1311821	seven one four	-0.45840412
-1.0641296	five one four	-0.27726737
-0.99887687	eight one four	-0.37385362
-1.3349363	two one four	-0.25435138
-1.0358604	six one four	-0.26926312
-0.96371245	four one four	-0.35348353
-1.1204213	oh one four	-0.42364204
-0.989117	three one four	-0.2694126
-1.1761764	<s> zero four	-0.7017367
-0.9898141	one zero four	-0.42660242
-1.0878696	zero zero four	-0.33096367
-1.1260184	nine zero four	-0.29839796
-1.1472077	seven zero four	-0.29839796
-1.1574268	five zero four	-0.21317331
-1.2108109	eight zero four	-0.16892524
-1.0903256	two zero four	-0.23303273
-0.92492676	six zero four	-0.3100833
-1.0008094	four zero four	-0.3862862
-1.0271384	three zero four	-0.28212845
-1.1172693	<s> nine four	-0.6969822
-1.4785595	one nine four	-0.20414947
-1.1788058	zero nine four	-0.2957441
-1.2232897	nine nine four	-0.21655574
-1.2484004	seven nine four	-0.2957441
-1.0546881	five nine four	-0.27775204
-1.0075892	eight nine four	-0.32950655
-1.1172463	two nine four	-0.26919672
-1.1886481	six nine four	-0.22115642
-1.2627983	four nine four	-0.26919672
-1.0478706	oh nine four	-0.37757915
-0.99898905	three nine four	-0.41848356
-1.1820894	<s> seven four	-0.6703128
-1.0498892	one seven four	-0.37129623
-1.2132164	zero seven four	-0.30166367
-1.193293	nine seven four	-0.18422891
-1.1028485	seven seven four	-0.38881385
-1.0546881	five seven four	-0.379864
-1.1744077	eight seven four	-0.3024201
-1.1695552	two seven four	-0.23450099
-1.0594345	six seven four	-0.52233887
-0.9627769	four seven four	-0.2788499
-0.95927256	oh seven four	-0.33141103
-1.0546881	three seven four	-0.22085798
-1.1650614	<s> five four	-0.6503219
-1.1596844	one five four	-0.21729434
-1.0478706	zero five four	-0.30395883
-1.2434931	nine five four	-0.31933942
-1.1311821	seven five four	-0.3014478
-1.1646478	five five four	-0.29839796
-1.0084221	eight five four	-0.36049157
-1.2674934	two five four	-0.20414947
-1.107701	six five four	-0.33114165
-1.0779179	four five four	-0.33141103
-1.0163867	oh five four	-0.3474212
-1.1265863	three five four	-0.19862536
-1.1706635	<s> eight four	-0.644718
-1.1792066	one eight four	-0.33979058
-1.1432296	zero eight four	-0.28155082
-0.9857608	nine eight four	-0.4025222
-1.1357297	seven eight four	-0.30395883
-1.2113912	five eight four	-0.20414947
-1.035166	eight eight four	-0.25082117
-1.1546636	two eight four	-0.22326659
-1.0084221	six eight four	-0.27775204
-1.0269055	four eight four	-0.29928333
-0.95927256	oh eight four	-0.30578077
-1.1219414	three eight four	-0.23140816
-1.1273669	<s> two four	-0.68688184
-0.93541175	one two four	-0.2855334
-1.051963	zero two four	-0.25435138
-1.0036757	nine two four	-0.2277256
-1.0641296	seven two four	-0.26755112
-1.1172463	five two four	-0.38881385
-1.1490936	eight two four	-0.22085798
-1.0118263	two two four	-0.3857687
-1.0912819	six two four	-0.5132124
-1.2434931	four two four	-0.2277256
-1.2785723	oh two four	-0.16892524
-1.1695552	three two four	-0.29839796
-1.2182899	<s> six four	-0.59631205
-1.1265863	one six four	-0.18422891
-1.3336198	zero six four	-0.2913637
-1.0314062	nine six four	-0.20723306
-1.1172463	seven six four	-0.3361435
-1.2158003	five six four	-0.25051117
-1.0777377	eight six four	-0.26919672
-1.05371	two six four	-0.25954232
-0.9721169	six six four	-0.25954232
-0.9841536	four six four	-0.33408096
-1.1008991	oh six four	-0.24190778
-1.1311821	three six four	-0.29839796
-1.1994318	<s> four four	-0.6398839
-1.1311821	one four four	-0.21317331
-0.9771374	zero four four	-0.18567142
-1.107701	nine four four	-0.249479
-1.0879569	seven four four	-0.33714524
-1.0594345	five four four	-0.3361435
-0.95803046	eight four four	-0.36580443
-1.0828774	two four four	-0.246122
-1.0828774	six four four	-0.2693201
-1.1265863	four four four	-0.25435138
-1.19094	oh four four	-0.31683075
-1.1124998	three four four	-0.31933942
-1.188902	<s> oh four	-0.6653171
-0.98097545	one oh four	-0.31069484
-1.0615073	nine oh four	-0.36590374
-1.1367422	seven oh four	-0.23050484
-1.2317448	five oh four	-0.29870328
-1.0115334	eight oh four	-0.2615857
-1.2051996	two oh four	-0.25051117
-1.2108109	six oh four	-0.4163024
-1.2565684	four oh four	-0.21775652
-0.99261963	oh oh four	-0.33031067
-0.9500375	three oh four	-0.45592535
-1.2574037	<s> three four	-0.55756783
-1.0999681	one three four	-0.33941978
-0.9903068	zero three four	-0.32554305
-1.0779179	nine three four	-0.2957441
-1.0956466	seven three four	-0.23140816
-1.0546881	five three four	-0.37129623
-1.0401294	eight three four	-0.351872
-1.2721384	two three four	-0.23140816
-1.035166	six three four	-0.21317331
-1.1124998	four three four	-0.33718222
-1.0420921	oh three four	-0.31432837
-1.0546881	three three four	-0.21729434
-1.1603167	<s> one oh	-0.69287866
-0.9860678	one one oh	-0.3018963
-1.0624952	nine one oh	-0.30690685
-1.2083195	seven one oh	-0.31192046
-1.1990789	five one oh	-0.3299035
-1.1166312	eight one oh	-0.26902407
-1.350647	two one oh	-0.2859392
-1.0946798	six one oh	-0.3182189
-0.9706474	four one oh	-0.2828302
-0.96935433	oh one oh	-0.27595666
-1.1068714	three one oh	-0.2394062
-1.159936	<s> nine oh	-0.6937125
-1.0624952	one nine oh	-0.32731205
-0.9758486	nine nine oh	-0.25082117
-1.1799859	seven nine oh	-0.23713541
-1.1896373	five nine oh	-0.18422891
-1.1709889	eight nine oh	-0.17720579
-1.0672417	two nine oh	-0.30395883
-1.0719367	six nine oh	-0.31041676
-1.1261765	four nine oh	-0.2916926
-0.8968037	oh nine oh	-0.37449345
-1.230596	three nine oh	-0.21655574
-1.1441059	<s> seven oh	-0.70906544
-1.1166312	one seven oh	-0.42027664
-1.0765817	nine seven oh	-0.27726737
-1.0009593	seven seven oh	-0.30395883
-1.1896373	five seven oh	-0.25051117
-1.1166312	eight seven oh	-0.2691183
-1.2609379	two seven oh	-0.20887929
-1.1261765	six seven oh	-0.3569333
-1.1261765	four seven oh	-0.18422891
-0.96571666	oh seven oh	-0.3372485
-1.12143	three seven oh	-0.2896874
-1.2873151	<s> five oh	-0.59265983
-1.350647	one five oh	-0.25051117
-1.0479364	nine five oh	-0.22888681
-1.1401123	seven five oh	-0.23713541
-1.0479364	five five oh	-0.339148
-1.0153571	eight five oh	-0.251999
-1.1308717	two five oh	-0.28366074
-1.1166312	six five oh	-0.3283069
-1.2128671	four five oh	-0.4163024
-0.97104543	oh five oh	-0.304652
-1.2037238	three five oh	-0.2957441
-1.0578055	<s> eight oh	-0.79525155
-1.0624952	one eight oh	-0.36590374
-1.1491604	nine eight oh	-0.3283069
-1.0857251	seven eight oh	-0.38881385
-1.1536148	five eight oh	-0.20414951
-1.1701152	eight eight oh	-0.3335326
-1.3456261	two eight oh	-0.2859392
-1.1943837	six eight oh	-0.19832018
-1.0857251	four eight oh	-0.3132077
-0.96571666	oh eight oh	-0.28218275
-1.5090358	three eight oh	-0.2913637
-1.2796204	<s> two oh	-0.5999591
-1.2083195	one two oh	-0.2957441
-1.12143	nine two oh	-0.21729434
-1.1308717	seven two oh	-0.3238773
-1.2753358	five two oh	-0.28414604
-1.099089	eight two oh	-0.27606848
-1.116291	two two oh	-0.27944222
-1.099089	six two oh	-0.23157468
-0.99605197	four two oh	-0.30645606
-0.8795447	oh two oh	-0.31243527
-1.0009593	three two oh	-0.22450836
-1.1658578	<s> six oh	-0.68734616
-1.1355165	one six oh	-0.25264043
-1.2173676	nine six oh	-0.33202818
-1.0672417	seven six oh	-0.37757915
-1.0472045	five six oh	-0.22085798
-1.086668	eight six oh	-0.3474212
-1.3130676	two six oh	-0.23585603
-1.1355165	six six oh	-0.20414951
-1.1701152	four six oh	-0.33714524
-0.94983226	oh six oh	-0.41840187
-1.1401123	three six oh	-0.32612577
-1.159936	<s> four oh	-0.69287866
-1.029293	one four oh	-0.33449274
-1.2657905	nine four oh	-0.21099803
-1.0968871	seven four oh	-0.27944222
-0.96901494	five four oh	-0.32554305
-1.12143	eight four oh	-0.35831043
-1.3405466	two four oh	-0.22326659
-1.2409668	six four oh	-0.2916926
-1.1355165	four four oh	-0.35364097
-0.9380452	oh four oh	-0.30082145
-1.0106107	three four oh	-0.249479
-0.90585226	<s> oh oh	-0.94753987
-1.0330867	one oh oh	-0.36861047
-0.9651299	nine oh oh	-0.34696716
-0.8736411	seven oh oh	-0.31273055
-0.930761	five oh oh	-0.29101497
-1.0124022	eight oh oh	-0.39265674
-0.94209844	two oh oh	-0.36593407
-1.0070733	six oh oh	-0.28075662
-0.9140697	four oh oh	-0.37840724
-1.0347658	oh oh oh	-0.36261296
-0.90921724	three oh oh	-0.45668203
-1.159936	<s> three oh	-0.6937125
-1.1077752	one three oh	-0.33114165
-1.0338405	nine three oh	-0.246122
-1.230596	seven three oh	-0.3474212
-1.12143	five three oh	-0.26919672
-1.1068714	eight three oh	-0.29354483
-1.1355165	two three oh	-0.29928333
-1.042973	six three oh	-0.27775204
-1.2705894	four three oh	-0.22502792
-0.9967509	oh three oh	-0.29418206
-1.0106107	three three oh	-0.2033093
-1.212043	<s> one three	-0.6040909
-1.0301452	one one three	-0.3208189
-0.95927256	zero one three	-0.26919672
-1.1124998	nine one three	-0.37129623
-1.022358	seven one three	-0.32848373
-1.1886481	five one three	-0.18422891
-1.4737605	eight one three	-0.28825566
-0.93850833	two one three	-0.33073518
-1.2113912	six one three	-0.2901112
-1.2180885	four one three	-0.19862536
-1.0098289	oh one three	-0.36049157
-1.1646478	three one three	-0.25575623
-1.2181495	<s> zero three	-0.6754933
-1.1944206	one zero three	-0.23303273
-1.0420401	zero zero three	-0.22326659
-1.1260184	nine zero three	-0.29354483
-1.1472077	seven zero three	-0.3299035
-0.98097545	five zero three	-0.309181
-0.95496196	eight zero three	-0.2801201
-1.1574268	two zero three	-0.22326659
-1.1472077	six zero three	-0.30578077
-1.0008094	four zero three	-0.33141103
-1.1523473	three zero three	-0.21729434
-1.2505667	<s> nine three	-0.5895412
-1.1792066	one nine three	-0.3462476
-1.0001775	zero nine three	-0.35831043
-1.019926	nine nine three	-0.3018963
-0.99402434	seven nine three	-0.2788499
-1.0546881	five nine three	-0.32207566
-0.9662883	eight nine three	-0.2615857
-0.921476	two nine three	-0.3035963
-1.1219414	six nine three	-0.15526196
-1.3592049	four nine three	-0.16252813
-1.0478706	oh nine three	-0.3283069
-1.2201651	three nine three	-0.23450099
-1.1706635	<s> seven three	-0.644718
-0.99887687	one seven three	-0.2877405
-1.0056629	zero seven three	-0.28090364
-1.1265863	nine seven three	-0.21317331
-1.0450367	seven seven three	-0.32007444
-1.1124998	five seven three	-0.27944222
-0.99887687	eight seven three	-0.4090848
-1.1028485	two seven three	-0.26713422
-1.1172463	six seven three	-0.25575623
-1.0084221	four seven three	-0.2394062
-1.1379008	oh seven three	-0.29954332
-1.1124998	three seven three	-0.2957441
-1.1486757	<s> five three	-0.68942136
-0.8972074	one five three	-0.35364097
-1.1159065	zero five three	-0.26902407
-1.0979412	nine five three	-0.25264043
-1.0733703	seven five three	-0.25575623
-1.0401294	five five three	-0.36590374
-1.3592049	eight five three	-0.29575258
-1.1219414	two five three	-0.19208784
-1.107701	six five three	-0.3299035
-1.0269055	four five three	-0.3237271
-1.0751938	oh five three	-0.29928333
-1.1265863	three five three	-0.26735866
-1.224628	<s> eight three	-0.5899719
-1.0546881	one eight three	-0.2901112
-1.0163867	zero eight three	-0.23722868
-1.1402302	nine eight three	-0.25264043
-1.2024364	seven eight three	-0.2668691
-1.0358604	five eight three	-0.4242419
-1.0929778	eight eight three	-0.26919672
-0.97913283	two eight three	-0.46136454
-1.2627983	six eight three	-0.2691183
-0.9812603	four eight three	-0.3337999
-1.446632	oh eight three	-0.21655574
-1.1219414	three eight three	-0.25575623
-1.1934434	<s> two three	-0.64587426
-1.1311821	one two three	-0.33709168
-1.0001775	zero two three	-0.33141103
-1.1792066	nine two three	-0.25435138
-1.1219414	seven two three	-0.4620304
-1.0084221	five two three	-0.49354923
-1.1490936	eight two three	-0.25575623
-1.1084839	two two three	-0.23140816
-1.0402695	six two three	-0.37846458
-1.0979412	four two three	-0.32007444
-0.9200192	oh two three	-0.24923865
-1.0450367	three two three	-0.21317331
-1.1820894	<s> six three	-0.63328856
-1.1265863	one six three	-0.33979058
-1.3336198	zero six three	-0.28271678
-1.0824184	nine six three	-0.20835297
-1.0084221	seven six three	-0.28526676
-1.2946457	five six three	-0.3024201
-1.019926	eight six three	-0.21089976
-0.9443028	two six three	-0.37385362
-1.2721384	six six three	-0.2859392
-1.1596844	four six three	-0.23585603
-1.1008991	oh six three	-0.39808846
-0.93541175	three six three	-0.35943976
-1.1934434	<s> four three	-0.62231576
-1.022358	one four three	-0.23722868
-0.8886875	zero four three	-0.42860988
-0.99887687	nine four three	-0.3100833
-1.1546636	seven four three	-0.21317331
-1.2627983	five four three	-0.28825566
-1.1792066	eight four three	-0.1724093
-1.149584	two four three	-0.2957441
-1.0828774	six four three	-0.22085798
-0.9721169	four four three	-0.35831043
-1.19094	oh four three	-0.26919672
-1.1792066	three four three	-0.23140816
-1.1186013	<s> oh three	-0.7347708
-1.0903256	one oh three	-0.25575623
-1.1196151	nine oh three	-0.27758348
-1.0115334	seven oh three	-0.26713422
-1.0852461	five oh three	-0.19208784
-1.069641	eight oh three	-0.36049157
-0.98291874	two oh three	-0.33210972
-1.1314135	six oh three	-0.21729434
-1.2565684	four oh three	-0.21317331
-1.0340712	oh oh three	-0.3119108
-1.0471095	three oh three	-0.2783067
-1.1591496	<s> three three	-0.6785634
-1.3033319	one three three	-0.21655574
-0.9903068	zero three three	-0.32187206
-1.2024364	nine three three	-0.3691241
-1.0446343	seven three three	-0.21317331
-1.2580519	five three three	-0.18422891
-0.989117	eight three three	-0.3014478
-0.9721169	two three three	-0.34689924
-1.0929778	six three three	-0.36829472
-1.1792066	four three three	-0.21729434
-1.1008991	oh three three	-0.29354483
-1.3544585	three three three	-0.16892524

\4-grams:
-0.6225977	<s> one one </s>	0
-0.56648785	one one one </s>	0
-0.8823901	zero one one </s>	0
-0.50138617	nine one one </s>	0
-0.6917071	seven one one </s>	0
-0.42098057	five one one </s>	0
-0.6619752	eight one one </s>	0
-0.7117483	two one one </s>	0
-0.5586021	six one one </s>	0
-0.36497977	four one one </s>	0
-0.37210354	oh one one </s>	0
-0.5904653	three one one </s>	0
-0.66604257	<s> zero one </s>	0
-0.6842355	one zero one </s>	0
-0.5497703	zero zero one </s>	0
-0.46292174	nine zero one </s>	0
-0.41836864	seven zero one </s>	0
-0.61090714	five zero one </s>	0
-0.42497742	eight zero one </s>	0
-0.3903838	two zero one </s>	0
-0.65925163	six zero one </s>	0
-0.69859505	four zero one </s>	0
-0.34413785	three zero one </s>	0
-0.62232155	<s> nine one </s>	0
-0.38829842	one nine one </s>	0
-0.9250708	zero nine one </s>	0
-0.5734397	nine nine one </s>	0
-0.68717325	seven nine one </s>	0
-0.6576136	five nine one </s>	0
-0.4709612	eight nine one </s>	0
-0.8427438	two nine one </s>	0
-0.6743274	six nine one </s>	0
-0.5193288	four nine one </s>	0
-0.44794655	oh nine one </s>	0
-0.33790416	three nine one </s>	0
-0.6407458	<s> seven one </s>	0
-0.57339835	one seven one </s>	0
-0.44657215	zero seven one </s>	0
-0.58099055	nine seven one </s>	0
-0.694869	seven seven one </s>	0
-0.426125	five seven one </s>	0
-0.63214934	eight seven one </s>	0
-0.6940698	two seven one </s>	0
-0.54065883	six seven one </s>	0
-0.52990913	four seven one </s>	0
-0.5190747	oh seven one </s>	0
-0.33666	three seven one </s>	0
-0.5701047	<s> five one </s>	0
-0.7058484	one five one </s>	0
-0.58961654	zero five one </s>	0
-0.48498517	nine five one </s>	0
-0.582363	seven five one </s>	0
-0.97313553	five five one </s>	0
-0.7868881	eight five one </s>	0
-0.49813506	two five one </s>	0
-0.5565456	six five one </s>	0
-0.5218811	four five one </s>	0
-0.94375074	oh five one </s>	0
-0.4209541	three five one </s>	0
-0.5365014	<s> eight one </s>	0
-0.82917076	one eight one </s>	0
-0.97866535	zero eight one </s>	0
-0.42564368	nine eight one </s>	0
-0.60114825	seven eight one </s>	0
-0.52151954	five eight one </s>	0
-0.37993684	eight eight one </s>	0
-0.44380733	two eight one </s>	0
-0.5563507	six eight one </s>	0
-0.6992172	oh eight one </s>	0
-0.91834366	three eight one </s>	0
-0.8741702	<s> two one </s>	0
-0.56284845	one two one </s>	0
-0.42010036	zero two one </s>	0
-0.5360396	nine two one </s>	0
-0.6270336	seven two one </s>	0
-0.7260401	five two one </s>	0
-0.45407462	eight two one </s>	0
-0.35489517	two two one </s>	0
-0.3728236	six two one </s>	0
-0.8500686	four two one </s>	0
-0.63606584	oh two one </s>	0
-0.9266358	three two one </s>	0
-0.59235525	<s> six one </s>	0
-0.67322	one six one </s>	0
-0.5618194	zero six one </s>	0
-0.9490366	nine six one </s>	0
-0.7330196	seven six one </s>	0
-0.4487003	five six one </s>	0
-0.87399495	eight six one </s>	0
-0.8564862	two six one </s>	0
-0.50035685	six six one </s>	0
-0.6912039	four six one </s>	0
-0.6451986	oh six one </s>	0
-0.6228297	three six one </s>	0
-0.7515029	<s> four one </s>	0
-0.41085643	one four one </s>	0
-0.7773751	zero four one </s>	0
-0.6291643	nine four one </s>	0
-0.6852217	seven four one </s>	0
-0.4678905	five four one </s>	0
-0.37743503	eight four one </s>	0
-0.85933745	two four one </s>	0
-0.53179455	six four one </s>	0
-0.32594195	four four one </s>	0
-0.29692036	oh four one </s>	0
-0.7459329	three four one </s>	0
-0.72235274	<s> oh one </s>	0
-0.90640265	one oh one </s>	0
-0.448754	nine oh one </s>	0
-0.58508015	seven oh one </s>	0
-0.58508015	five oh one </s>	0
-0.49662334	eight oh one </s>	0
-0.6954899	two oh one </s>	0
-0.7367721	six oh one </s>	0
-0.4077091	four oh one </s>	0
-0.56804395	oh oh one </s>	0
-0.5929294	three oh one </s>	0
-0.6177156	<s> three one </s>	0
-0.6445458	one three one </s>	0
-0.62847376	zero three one </s>	0
-0.44541162	nine three one </s>	0
-0.48047855	seven three one </s>	0
-0.6018448	five three one </s>	0
-0.5364996	eight three one </s>	0
-0.30518705	two three one </s>	0
-0.3432431	six three one </s>	0
-0.715702	four three one </s>	0
-0.5348122	oh three one </s>	0
-0.54372895	three three one </s>	0
-0.6442317	<s> one zero </s>	0
-0.4903356	one one zero </s>	0
-0.47458905	zero one zero </s>	0
-0.4153369	nine one zero </s>	0
-0.7518389	seven one zero </s>	0
-0.78018093	five one zero </s>	0
-0.680352	eight one zero </s>	0
-0.680352	two one zero </s>	0
-0.474984	six one zero </s>	0
-0.41176355	four one zero </s>	0
-0.58954525	three one zero </s>	0
-0.6847121	<s> zero zero </s>	0
-0.54121506	one zero zero </s>	0
-0.6135748	zero zero zero </s>	0
-0.67846256	nine zero zero </s>	0
-0.629483	seven zero zero </s>	0
-0.48503888	five zero zero </s>	0
-0.74693996	eight zero zero </s>	0
-0.6947345	two zero zero </s>	0
-0.61947805	six zero zero </s>	0
-0.52834773	four zero zero </s>	0
-0.48284262	three zero zero </s>	0
-0.69493914	<s> nine zero </s>	0
-0.7387874	one nine zero </s>	0
-0.70660275	zero nine zero </s>	0
-0.44503546	nine nine zero </s>	0
-0.54406434	seven nine zero </s>	0
-0.80285466	five nine zero </s>	0
-0.6590531	eight nine zero </s>	0
-0.6370067	two nine zero </s>	0
-0.6733233	six nine zero </s>	0
-0.4903826	four nine zero </s>	0
-0.5065532	three nine zero </s>	0
-0.71670765	<s> seven zero </s>	0
-0.9123241	one seven zero </s>	0
-0.627989	zero seven zero </s>	0
-0.66262746	nine seven zero </s>	0
-0.53566545	seven seven zero </s>	0
-0.33517367	five seven zero </s>	0
-0.47183058	eight seven zero </s>	0
-0.656738	two seven zero </s>	0
-0.8752321	six seven zero </s>	0
-0.6069794	four seven zero </s>	0
-0.52905804	three seven zero </s>	0
-0.7489396	<s> five zero </s>	0
-0.819666	one five zero </s>	0
-0.5781648	zero five zero </s>	0
-0.36443532	nine five zero </s>	0
-0.5290481	seven five zero </s>	0
-0.5355387	five five zero </s>	0
-0.66722393	eight five zero </s>	0
-0.88476944	two five zero </s>	0
-0.3698775	six five zero </s>	0
-0.44086558	four five zero </s>	0
-0.5836887	three five zero </s>	0
-0.6960177	<s> eight zero </s>	0
-0.6725198	one eight zero </s>	0
-0.31983382	zero eight zero </s>	0
-0.7357801	nine eight zero </s>	0
-0.62630594	seven eight zero </s>	0
-0.5295603	five eight zero </s>	0
-0.61640346	eight eight zero </s>	0
-0.62059003	two eight zero </s>	0
-0.44119585	six eight zero </s>	0
-0.6971745	four eight zero </s>	0
-0.6971745	three eight zero </s>	0
-0.72263926	<s> two zero </s>	0
-0.66722393	one two zero </s>	0
-0.58909667	zero two zero </s>	0
-0.3854742	nine two zero </s>	0
-0.6846903	seven two zero </s>	0
-0.78091836	five two zero </s>	0
-0.43105388	eight two zero </s>	0
-0.340662	two two zero </s>	0
-0.8614048	six two zero </s>	0
-0.623143	four two zero </s>	0
-0.64715135	three two zero </s>	0
-0.58067346	<s> six zero </s>	0
-0.5435818	one six zero </s>	0
-0.7650336	zero six zero </s>	0
-0.458681	nine six zero </s>	0
-0.8853464	seven six zero </s>	0
-0.37083203	five six zero </s>	0
-0.6146597	eight six zero </s>	0
-0.47895673	two six zero </s>	0
-0.7853091	six six zero </s>	0
-0.503882	four six zero </s>	0
-0.6352001	three six zero </s>	0
-0.65726763	<s> four zero </s>	0
-0.5953246	one four zero </s>	0
-0.69687355	zero four zero </s>	0
-0.36444736	nine four zero </s>	0
-0.642118	seven four zero </s>	0
-0.41971567	five four zero </s>	0
-0.85175014	eight four zero </s>	0
-0.87986135	two four zero </s>	0
-0.30496192	six four zero </s>	0
-0.51763105	four four zero </s>	0
-0.6106456	three four zero </s>	0
-0.5943835	<s> three zero </s>	0
-0.5214225	one three zero </s>	0
-0.50153077	zero three zero </s>	0
-0.8494604	nine three zero </s>	0
-0.3189021	seven three zero </s>	0
-0.88297665	five three zero </s>	0
-0.4246658	eight three zero </s>	0
-0.4958672	two three zero </s>	0
-0.6907566	six three zero </s>	0
-0.35126045	four three zero </s>	0
-0.67383146	three three zero </s>	0
-0.5574838	<s> one nine </s>	0
-0.81185573	one one nine </s>	0
-0.37275788	zero one nine </s>	0
-0.5542934	nine one nine </s>	0
-0.5027454	seven one nine </s>	0
-0.53912956	five one nine </s>	0
-0.44750658	eight one nine </s>	0
-0.5002243	two one nine </s>	0
-0.4432568	six one nine </s>	0
-0.6954307	four one nine </s>	0
-0.7338605	oh one nine </s>	0
-0.31781766	three one nine </s>	0
-0.63039875	<s> zero nine </s>	0
-0.49263752	one zero nine </s>	0
-0.4963757	zero zero nine </s>	0
-0.59140015	nine zero nine </s>	0
-0.7333462	seven zero nine </s>	0
-0.5329927	five zero nine </s>	0
-0.5772066	eight zero nine </s>	0
-0.42698607	two zero nine </s>	0
-0.45790118	six zero nine </s>	0
-0.6432137	four zero nine </s>	0
-0.45986414	three zero nine </s>	0
-0.6523074	<s> nine nine </s>	0
-0.38581082	one nine nine </s>	0
-0.48400366	zero nine nine </s>	0
-0.77118325	nine nine nine </s>	0
-0.8032364	seven nine nine </s>	0
-0.8352569	five nine nine </s>	0
-0.8510164	eight nine nine </s>	0
-0.41173822	two nine nine </s>	0
-0.5114744	six nine nine </s>	0
-0.54567486	four nine nine </s>	0
-0.41173822	oh nine nine </s>	0
-0.47109658	three nine nine </s>	0
-0.5644139	<s> seven nine </s>	0
-0.5707395	one seven nine </s>	0
-0.4554087	zero seven nine </s>	0
-0.49548122	nine seven nine </s>	0
-0.38199747	seven seven nine </s>	0
-0.7175754	five seven nine </s>	0
-0.5656388	eight seven nine </s>	0
-0.662346	two seven nine </s>	0
-0.7058286	six seven nine </s>	0
-0.49187368	four seven nine </s>	0
-0.6978438	oh seven nine </s>	0
-0.55464447	three seven nine </s>	0
-0.73937166	<s> five nine </s>	0
-0.88243854	one five nine </s>	0
-0.38339415	zero five nine </s>	0
-0.75148976	nine five nine </s>	0
-0.38339415	seven five nine </s>	0
-0.41264254	five five nine </s>	0
-0.8387586	eight five nine </s>	0
-0.497491	two five nine </s>	0
-0.521281	six five nine </s>	0
-0.9044695	four five nine </s>	0
-0.90097106	oh five nine </s>	0
-0.41741085	three five nine </s>	0
-0.62800854	<s> eight nine </s>	0
-0.5161534	one eight nine </s>	0
-0.5419181	zero eight nine </s>	0
-0.5256653	nine eight nine </s>	0
-0.6975228	seven eight nine </s>	0
-0.38226655	five eight nine </s>	0
-0.65826714	eight eight nine </s>	0
-0.5657069	two eight nine </s>	0
-0.6497217	six eight nine </s>	0
-0.9035719	four eight nine </s>	0
-0.39804697	oh eight nine </s>	0
-0.74940723	three eight nine </s>	0
-0.531458	<s> two nine </s>	0
-0.6210099	one two nine </s>	0
-0.7429825	zero two nine </s>	0
-0.85559696	nine two nine </s>	0
-0.54526013	seven two nine </s>	0
-0.5016782	five two nine </s>	0
-0.4971775	eight two nine </s>	0
-0.36318824	two two nine </s>	0
-0.36318824	six two nine </s>	0
-0.6721704	four two nine </s>	0
-0.4157929	oh two nine </s>	0
-0.35068935	three two nine </s>	0
-0.69896567	<s> six nine </s>	0
-0.36377823	one six nine </s>	0
-0.6082826	zero six nine </s>	0
-0.29541737	nine six nine </s>	0
-0.9071508	seven six nine </s>	0
-0.3356962	five six nine </s>	0
-0.9180225	eight six nine </s>	0
-0.5765977	two six nine </s>	0
-0.5565456	six six nine </s>	0
-0.4773082	four six nine </s>	0
-0.4495533	oh six nine </s>	0
-0.5506611	three six nine </s>	0
-0.65211487	<s> four nine </s>	0
-0.6846086	one four nine </s>	0
-0.44411027	zero four nine </s>	0
-0.675922	nine four nine </s>	0
-0.3910733	seven four nine </s>	0
-0.9090613	five four nine </s>	0
-0.6637267	eight four nine </s>	0
-0.44875795	two four nine </s>	0
-0.8974525	six four nine </s>	0
-0.52079177	four four nine </s>	0
-0.492723	oh four nine </s>	0
-0.47612542	three four nine </s>	0
-0.5699613	<s> oh nine </s>	0
-0.5124936	one oh nine </s>	0
-0.44900066	nine oh nine </s>	0
-0.62579906	seven oh nine </s>	0
-0.4875509	five oh nine </s>	0
-0.3713417	eight oh nine </s>	0
-0.5855687	two oh nine </s>	0
-0.38317212	six oh nine </s>	0
-0.5079614	four oh nine </s>	0
-0.46933782	oh oh nine </s>	0
-0.46502304	three oh nine </s>	0
-0.5948857	<s> three nine </s>	0
-0.5457032	one three nine </s>	0
-0.565927	zero three nine </s>	0
-0.92361265	nine three nine </s>	0
-0.60786915	seven three nine </s>	0
-0.8940246	five three nine </s>	0
-0.8764102	eight three nine </s>	0
-0.38261396	two three nine </s>	0
-0.56625915	six three nine </s>	0
-0.4203335	four three nine </s>	0
-0.6455647	oh three nine </s>	0
-0.44166717	three three nine </s>	0
-0.6857667	<s> one seven </s>	0
-0.88523334	one one seven </s>	0
-0.45692176	zero one seven </s>	0
-0.44299024	nine one seven </s>	0
-0.382703	seven one seven </s>	0
-0.7201746	five one seven </s>	0
-0.44238618	eight one seven </s>	0
-0.60897356	two one seven </s>	0
-0.49067274	six one seven </s>	0
-0.5961476	four one seven </s>	0
-0.69981676	oh one seven </s>	0
-0.58480036	three one seven </s>	0
-0.77637094	<s> zero seven </s>	0
-0.6787604	one zero seven </s>	0
-0.6787737	zero zero seven </s>	0
-0.4104101	nine zero seven </s>	0
-0.6064096	seven zero seven </s>	0
-0.7200168	five zero seven </s>	0
-0.6381562	eight zero seven </s>	0
-0.5395098	two zero seven </s>	0
-0.4636932	six zero seven </s>	0
-0.8382355	four zero seven </s>	0
-0.52279794	three zero seven </s>	0
-0.5805607	<s> nine seven </s>	0
-0.9098322	one nine seven </s>	0
-0.6844496	zero nine seven </s>	0
-0.8939132	nine nine seven </s>	0
-0.94104314	seven nine seven </s>	0
-0.473656	five nine seven </s>	0
-0.29262012	eight nine seven </s>	0
-1.0271053	two nine seven </s>	0
-0.49068043	six nine seven </s>	0
-0.34682477	four nine seven </s>	0
-0.6121667	oh nine seven </s>	0
-0.7264536	three nine seven </s>	0
-0.43725014	<s> seven seven </s>	0
-0.49187368	one seven seven </s>	0
-0.42026538	zero seven seven </s>	0
-0.5276358	nine seven seven </s>	0
-0.41494516	seven seven seven </s>	0
-0.59476805	five seven seven </s>	0
-0.52361006	eight seven seven </s>	0
-0.6978438	two seven seven </s>	0
-0.533949	six seven seven </s>	0
-0.44221014	four seven seven </s>	0
-0.7042431	oh seven seven </s>	0
-0.3869964	three seven seven </s>	0
-0.6694316	<s> five seven </s>	0
-0.5630433	one five seven </s>	0
-0.64245766	zero five seven </s>	0
-0.5002243	nine five seven </s>	0
-0.59750104	seven five seven </s>	0
-0.53473264	five five seven </s>	0
-0.6213072	eight five seven </s>	0
-0.41952783	two five seven </s>	0
-0.59750104	six five seven </s>	0
-0.39531755	four five seven </s>	0
-0.5734397	oh five seven </s>	0
-0.8471265	three five seven </s>	0
-0.8208883	<s> eight seven </s>	0
-0.46367735	one eight seven </s>	0
-0.83358335	zero eight seven </s>	0
-0.4224751	nine eight seven </s>	0
-0.6853714	seven eight seven </s>	0
-0.5673951	five eight seven </s>	0
-0.7201746	eight eight seven </s>	0
-0.43760103	two eight seven </s>	0
-0.67270344	six eight seven </s>	0
-0.42366606	four eight seven </s>	0
-0.49067274	oh eight seven </s>	0
-0.58480036	three eight seven </s>	0
-0.8893821	<s> two seven </s>	0
-0.61847603	one two seven </s>	0
-0.7543961	zero two seven </s>	0
-0.78955126	nine two seven </s>	0
-0.31804302	seven two seven </s>	0
-0.3167107	five two seven </s>	0
-0.45685703	eight two seven </s>	0
-0.61332494	two two seven </s>	0
-0.36706114	six two seven </s>	0
-0.6672147	four two seven </s>	0
-0.5656388	oh two seven </s>	0
-0.41587383	three two seven </s>	0
-0.60049975	<s> six seven </s>	0
-0.49486685	one six seven </s>	0
-0.9124906	zero six seven </s>	0
-0.7007857	nine six seven </s>	0
-0.44875795	seven six seven </s>	0
-0.3798635	five six seven </s>	0
-0.61473286	eight six seven </s>	0
-0.5268508	two six seven </s>	0
-0.52079177	six six seven </s>	0
-0.83096564	four six seven </s>	0
-0.5876576	oh six seven </s>	0
-0.5312466	three six seven </s>	0
-0.8004385	<s> four seven </s>	0
-0.63448465	one four seven </s>	0
-0.4097211	zero four seven </s>	0
-0.8802898	nine four seven </s>	0
-0.38462973	seven four seven </s>	0
-0.49486685	five four seven </s>	0
-0.52079177	eight four seven </s>	0
-0.3889296	two four seven </s>	0
-0.8791572	six four seven </s>	0
-0.9066486	four four seven </s>	0
-0.64228356	oh four seven </s>	0
-0.71496105	three four seven </s>	0
-0.8096318	<s> oh seven </s>	0
-0.58931214	one oh seven </s>	0
-0.3655359	nine oh seven </s>	0
-0.88260126	seven oh seven </s>	0
-0.8725957	five oh seven </s>	0
-0.53392243	eight oh seven </s>	0
-0.4113292	two oh seven </s>	0
-0.66785544	six oh seven </s>	0
-0.56127393	four oh seven </s>	0
-0.5485745	oh oh seven </s>	0
-0.4486977	three oh seven </s>	0
-0.6427429	<s> three seven </s>	0
-0.33469233	one three seven </s>	0
-0.89462817	zero three seven </s>	0
-0.7096341	nine three seven </s>	0
-0.56832325	seven three seven </s>	0
-0.44375455	five three seven </s>	0
-0.67054856	eight three seven </s>	0
-0.52579165	two three seven </s>	0
-0.4938888	six three seven </s>	0
-0.44806713	four three seven </s>	0
-0.5741042	oh three seven </s>	0
-0.37555635	three three seven </s>	0
-0.9192634	<s> one five </s>	0
-0.5298139	one one five </s>	0
-0.90903944	zero one five </s>	0
-0.497602	nine one five </s>	0
-0.8920386	seven one five </s>	0
-0.21614	five one five </s>	0
-0.31058505	eight one five </s>	0
-0.35488135	two one five </s>	0
-0.62479347	four one five </s>	0
-0.9314784	oh one five </s>	0
-0.4576233	three one five </s>	0
-0.5840744	<s> zero five </s>	0
-0.4426815	one zero five </s>	0
-0.4601507	zero zero five </s>	0
-0.49678463	nine zero five </s>	0
-0.49678463	seven zero five </s>	0
-0.6109341	five zero five </s>	0
-0.652128	eight zero five </s>	0
-0.51893306	two zero five </s>	0
-0.8288537	six zero five </s>	0
-0.52836436	four zero five </s>	0
-0.4520402	three zero five </s>	0
-0.8361814	<s> nine five </s>	0
-0.41735184	one nine five </s>	0
-0.44059098	zero nine five </s>	0
-0.4101776	nine nine five </s>	0
-0.40795767	seven nine five </s>	0
-0.63770926	five nine five </s>	0
-0.6145044	eight nine five </s>	0
-0.47284144	two nine five </s>	0
-0.6570756	six nine five </s>	0
-0.59336174	four nine five </s>	0
-0.8040106	oh nine five </s>	0
-0.38127708	three nine five </s>	0
-0.8841287	<s> seven five </s>	0
-0.39403147	one seven five </s>	0
-0.523352	zero seven five </s>	0
-0.5587139	nine seven five </s>	0
-0.6071793	seven seven five </s>	0
-0.8088212	five seven five </s>	0
-0.50631785	eight seven five </s>	0
-0.4901665	two seven five </s>	0
-0.57854474	six seven five </s>	0
-0.70917994	four seven five </s>	0
-0.52990913	oh seven five </s>	0
-0.6940698	three seven five </s>	0
-0.748325	<s> five five </s>	0
-0.65681046	one five five </s>	0
-0.650934	zero five five </s>	0
-0.5701805	nine five five </s>	0
-0.49241757	seven five five </s>	0
-0.82094026	five five five </s>	0
-0.48442453	eight five five </s>	0
-0.36070293	two five five </s>	0
-0.5569694	six five five </s>	0
-0.56934994	four five five </s>	0
-0.69384843	oh five five </s>	0
-0.49084276	three five five </s>	0
-0.57671595	<s> eight five </s>	0
-0.83096564	one eight five </s>	0
-0.5410868	zero eight five </s>	0
-0.5811745	nine eight five </s>	0
-0.64228356	seven eight five </s>	0
-0.8499503	five eight five </s>	0
-0.8937154	eight eight five </s>	0
-0.56962776	two eight five </s>	0
-0.2860407	six eight five </s>	0
-0.4181562	four eight five </s>	0
-0.6971436	oh eight five </s>	0
-0.6653097	three eight five </s>	0
-0.6104829	<s> two five </s>	0
-0.5506611	one two five </s>	0
-0.4764229	zero two five </s>	0
-0.45420903	nine two five </s>	0
-0.68268764	seven two five </s>	0
-0.5791142	five two five </s>	0
-0.87651706	eight two five </s>	0
-0.49813506	two two five </s>	0
-0.36377823	six two five </s>	0
-0.4363854	four two five </s>	0
-0.9260516	oh two five </s>	0
-0.67194426	three two five </s>	0
-0.8268786	<s> six five </s>	0
-0.59867334	one six five </s>	0
-0.6409043	zero six five </s>	0
-0.5157608	nine six five </s>	0
-0.3477466	seven six five </s>	0
-0.5182733	five six five </s>	0
-0.83606493	eight six five </s>	0
-0.8260354	two six five </s>	0
-0.5929296	six six five </s>	0
-0.38134548	four six five </s>	0
-0.36959243	oh six five </s>	0
-0.44711876	three six five </s>	0
-0.7610708	<s> four five </s>	0
-0.82412183	one four five </s>	0
-0.6557895	zero four five </s>	0
-0.45094085	nine four five </s>	0
-0.65313524	seven four five </s>	0
-0.6279408	five four five </s>	0
-0.4209942	eight four five </s>	0
-0.91627693	two four five </s>	0
-0.4649287	six four five </s>	0
-0.61494243	four four five </s>	0
-0.5889415	oh four five </s>	0
-0.6261701	three four five </s>	0
-0.55755186	<s> oh five </s>	0
-0.8456469	one oh five </s>	0
-0.4604048	nine oh five </s>	0
-0.383038	seven oh five </s>	0
-0.45228347	five oh five </s>	0
-0.3966917	eight oh five </s>	0
-0.3498363	two oh five </s>	0
-0.33046043	six oh five </s>	0
-0.57344294	four oh five </s>	0
-0.45194197	oh oh five </s>	0
-0.5062274	three oh five </s>	0
-1.1469978	<s> three five </s>	0
-0.60746133	one three five </s>	0
-0.56617403	zero three five </s>	0
-0.41897094	nine three five </s>	0
-0.5018683	seven three five </s>	0
-0.6469506	five three five </s>	0
-0.440761	eight three five </s>	0
-0.5500253	two three five </s>	0
-0.55763996	six three five </s>	0
-0.36435646	four three five </s>	0
-0.39341232	oh three five </s>	0
-0.3751623	three three five </s>	0
-0.7842866	<s> one eight </s>	0
-0.4141176	one one eight </s>	0
-0.21491522	zero one eight </s>	0
-0.89032054	nine one eight </s>	0
-0.5918352	seven one eight </s>	0
-0.97591984	five one eight </s>	0
-0.3914789	eight one eight </s>	0
-0.68717325	two one eight </s>	0
-0.72218955	six one eight </s>	0
-0.7096341	four one eight </s>	0
-0.5823636	oh one eight </s>	0
-0.42544857	three one eight </s>	0
-0.71142656	<s> zero eight </s>	0
-0.7576556	one zero eight </s>	0
-0.49470407	zero zero eight </s>	0
-0.41701886	nine zero eight </s>	0
-0.49117437	seven zero eight </s>	0
-0.36618003	five zero eight </s>	0
-0.6862442	eight zero eight </s>	0
-0.6096755	two zero eight </s>	0
-0.45676005	six zero eight </s>	0
-0.36226934	four zero eight </s>	0
-0.53759056	three zero eight </s>	0
-0.7743117	<s> nine eight </s>	0
-0.6326822	one nine eight </s>	0
-0.5096961	zero nine eight </s>	0
-0.79839605	nine nine eight </s>	0
-0.6415913	seven nine eight </s>	0
-0.5064328	five nine eight </s>	0
-0.4464863	eight nine eight </s>	0
-0.387262	two nine eight </s>	0
-0.6798597	six nine eight </s>	0
-0.48057908	four nine eight </s>	0
-0.6549378	oh nine eight </s>	0
-0.7236468	three nine eight </s>	0
-0.7186707	<s> seven eight </s>	0
-0.44139338	one seven eight </s>	0
-0.49859554	zero seven eight </s>	0
-0.60631245	nine seven eight </s>	0
-0.49261004	seven seven eight </s>	0
-0.45184818	five seven eight </s>	0
-0.7072438	eight seven eight </s>	0
-0.67016476	two seven eight </s>	0
-0.7500981	six seven eight </s>	0
-0.47099507	four seven eight </s>	0
-0.57632494	oh seven eight </s>	0
-0.8079161	three seven eight </s>	0
-0.6619521	<s> five eight </s>	0
-0.52703124	one five eight </s>	0
-0.7183941	zero five eight </s>	0
-0.23501638	nine five eight </s>	0
-0.52617604	seven five eight </s>	0
-0.73537093	five five eight </s>	0
-0.3993778	eight five eight </s>	0
-0.6989383	two five eight </s>	0
-0.63782424	six five eight </s>	0
-0.6614898	four five eight </s>	0
-0.619853	oh five eight </s>	0
-0.6442426	three five eight </s>	0
-0.854839	<s> eight eight </s>	0
-0.45965344	one eight eight </s>	0
-0.32296982	zero eight eight </s>	0
-0.5732809	nine eight eight </s>	0
-0.38043934	seven eight eight </s>	0
-0.91983706	five eight eight </s>	0
-0.7669074	eight eight eight </s>	0
-0.7886895	two eight eight </s>	0
-0.5665201	six eight eight </s>	0
-0.64825743	oh eight eight </s>	0
-0.44300514	three eight eight </s>	0
-0.6366407	<s> two eight </s>	0
-0.39329523	one two eight </s>	0
-0.5347714	zero two eight </s>	0
-0.6585218	nine two eight </s>	0
-0.42140466	seven two eight </s>	0
-0.7495078	five two eight </s>	0
-0.44561535	eight two eight </s>	0
-0.90609485	two two eight </s>	0
-0.33667073	six two eight </s>	0
-0.2967312	four two eight </s>	0
-0.56002307	three two eight </s>	0
-0.5914665	<s> six eight </s>	0
-0.2622454	one six eight </s>	0
-0.5436258	zero six eight </s>	0
-0.4673518	nine six eight </s>	0
-0.58780307	seven six eight </s>	0
-0.6070436	five six eight </s>	0
-0.71496105	eight six eight </s>	0
-0.8499503	two six eight </s>	0
-0.4971775	six six eight </s>	0
-0.5842223	four six eight </s>	0
-0.54800785	oh six eight </s>	0
-0.64398265	three six eight </s>	0
-0.73703825	<s> four eight </s>	0
-0.42560104	one four eight </s>	0
-0.9083312	zero four eight </s>	0
-0.50466466	nine four eight </s>	0
-0.6118646	seven four eight </s>	0
-0.71858466	five four eight </s>	0
-0.6820219	eight four eight </s>	0
-0.47978464	two four eight </s>	0
-0.67645353	six four eight </s>	0
-0.78343993	four four eight </s>	0
-0.5921316	oh four eight </s>	0
-0.39830318	three four eight </s>	0
-0.71361744	<s> oh eight </s>	0
-0.4809403	one oh eight </s>	0
-0.57201195	nine oh eight </s>	0
-0.47411832	seven oh eight </s>	0
-0.5240298	five oh eight </s>	0
-0.3822664	eight oh eight </s>	0
-0.47411832	two oh eight </s>	0
-0.4922614	six oh eight </s>	0
-0.56615496	four oh eight </s>	0
-0.49457645	oh oh eight </s>	0
-0.41616973	three oh eight </s>	0
-0.70928794	<s> three eight </s>	0
-0.64548004	one three eight </s>	0
-0.64548004	zero three eight </s>	0
-0.5791142	nine three eight </s>	0
-0.52771086	seven three eight </s>	0
-0.39788613	five three eight </s>	0
-0.86702514	eight three eight </s>	0
-0.7721722	two three eight </s>	0
-0.5339827	six three eight </s>	0
-0.616144	four three eight </s>	0
-0.6043313	oh three eight </s>	0
-0.74435306	three three eight </s>	0
-0.6541098	<s> one two </s>	0
-0.7202616	one one two </s>	0
-0.87869143	zero one two </s>	0
-0.45716837	nine one two </s>	0
-0.37032184	seven one two </s>	0
-0.59827644	five one two </s>	0
-0.4999957	eight one two </s>	0
-0.65720725	two one two </s>	0
-0.501912	six one two </s>	0
-0.4999957	four one two </s>	0
-0.93392974	oh one two </s>	0
-0.6398801	three one two </s>	0
-0.6485551	<s> zero two </s>	0
-0.61789256	one zero two </s>	0
-0.6504997	zero zero two </s>	0
-0.39257738	nine zero two </s>	0
-0.48438212	seven zero two </s>	0
-0.5563818	five zero two </s>	0
-0.722298	eight zero two </s>	0
-0.52723366	two zero two </s>	0
-0.4771822	six zero two </s>	0
-0.8719548	four zero two </s>	0
-0.56007296	three zero two </s>	0
-0.7367659	<s> nine two </s>	0
-0.5741042	one nine two </s>	0
-0.36819303	zero nine two </s>	0
-0.412	nine nine two </s>	0
-0.5542934	seven nine two </s>	0
-0.5542934	five nine two </s>	0
-0.6032418	eight nine two </s>	0
-0.86503863	two nine two </s>	0
-0.5542934	six nine two </s>	0
-0.41264254	four nine two </s>	0
-0.53473264	oh nine two </s>	0
-0.81185573	three nine two </s>	0
-0.58819187	<s> seven two </s>	0
-0.49582607	one seven two </s>	0
-0.69423133	zero seven two </s>	0
-0.50794923	nine seven two </s>	0
-0.7139215	seven seven two </s>	0
-0.6493195	five seven two </s>	0
-0.3777154	eight seven two </s>	0
-0.4192812	two seven two </s>	0
-0.48391122	six seven two </s>	0
-0.7145585	four seven two </s>	0
-0.65429395	oh seven two </s>	0
-0.6082826	three seven two </s>	0
-0.7190361	<s> five two </s>	0
-0.5159779	one five two </s>	0
-0.8319349	zero five two </s>	0
-0.5268508	nine five two </s>	0
-0.5203638	seven five two </s>	0
-0.92721885	five five two </s>	0
-0.48055595	eight five two </s>	0
-0.5988292	two five two </s>	0
-0.6250872	six five two </s>	0
-0.4673518	four five two </s>	0
-0.9395709	oh five two </s>	0
-0.62386626	three five two </s>	0
-0.73591685	<s> eight two </s>	0
-0.6456473	one eight two </s>	0
-0.5890506	zero eight two </s>	0
-0.59113765	nine eight two </s>	0
-0.7161185	seven eight two </s>	0
-0.45401508	five eight two </s>	0
-0.3863198	eight eight two </s>	0
-0.45122975	two eight two </s>	0
-0.7371319	six eight two </s>	0
-0.7222444	four eight two </s>	0
-0.36708274	oh eight two </s>	0
-0.5229428	three eight two </s>	0
-0.6963021	<s> two two </s>	0
-0.6543363	one two two </s>	0
-0.5265412	zero two two </s>	0
-0.5825135	nine two two </s>	0
-0.5067829	seven two two </s>	0
-0.9515197	five two two </s>	0
-0.45037994	eight two two </s>	0
-0.33662748	two two two </s>	0
-0.51022047	six two two </s>	0
-0.7905439	four two two </s>	0
-0.88292253	oh two two </s>	0
-0.62591153	three two two </s>	0
-0.5978166	<s> six two </s>	0
-0.60680014	one six two </s>	0
-0.45131293	zero six two </s>	0
-0.33847657	nine six two </s>	0
-0.5071332	seven six two </s>	0
-0.6465068	five six two </s>	0
-0.9121454	eight six two </s>	0
-0.55720735	two six two </s>	0
-0.42747033	six six two </s>	0
-0.49515015	four six two </s>	0
-0.5229428	oh six two </s>	0
-0.7161185	three six two </s>	0
-0.7738439	<s> four two </s>	0
-0.5224863	one four two </s>	0
-0.60599256	zero four two </s>	0
-0.41422325	nine four two </s>	0
-0.5224863	seven four two </s>	0
-0.42004097	five four two </s>	0
-0.5875592	eight four two </s>	0
-0.49084276	two four two </s>	0
-0.53166455	six four two </s>	0
-0.5701805	four four two </s>	0
-0.55346215	oh four two </s>	0
-0.77211535	three four two </s>	0
-0.642547	<s> oh two </s>	0
-0.41725326	one oh two </s>	0
-0.7231323	nine oh two </s>	0
-0.4837217	seven oh two </s>	0
-0.40633947	five oh two </s>	0
-0.52451694	eight oh two </s>	0
-0.25575745	two oh two </s>	0
-0.21152565	six oh two </s>	0
-0.4254098	four oh two </s>	0
-0.6020525	oh oh two </s>	0
-0.82399595	three oh two </s>	0
-0.6867286	<s> three two </s>	0
-0.48961687	one three two </s>	0
-0.30570287	zero three two </s>	0
-0.32962215	nine three two </s>	0
-0.48551923	seven three two </s>	0
-0.676017	five three two </s>	0
-0.48551923	eight three two </s>	0
-0.94398767	two three two </s>	0
-0.6835368	six three two </s>	0
-0.62989944	four three two </s>	0
-0.41257936	oh three two </s>	0
-0.33683583	three three two </s>	0
-0.5846423	<s> one six </s>	0
-0.49676687	one one six </s>	0
-0.473656	zero one six </s>	0
-0.41631168	nine one six </s>	0
-0.55763996	seven one six </s>	0
-0.6632707	five one six </s>	0
-0.5500253	eight one six </s>	0
-0.87601644	two one six </s>	0
-0.473656	six one six </s>	0
-0.96535444	four one six </s>	0
-0.79705864	oh one six </s>	0
-0.6383743	three one six </s>	0
-0.508566	<s> zero six </s>	0
-0.44930765	one zero six </s>	0
-0.71123254	zero zero six </s>	0
-0.58861756	nine zero six </s>	0
-0.70495284	seven zero six </s>	0
-0.6583737	five zero six </s>	0
-0.46571463	eight zero six </s>	0
-0.69014454	two zero six </s>	0
-0.84321284	six zero six </s>	0
-0.5017727	four zero six </s>	0
-0.78357375	three zero six </s>	0
-0.540487	<s> nine six </s>	0
-0.6697418	one nine six </s>	0
-0.6626306	zero nine six </s>	0
-0.6074324	nine nine six </s>	0
-0.70525897	seven nine six </s>	0
-0.5210443	five nine six </s>	0
-0.6717054	eight nine six </s>	0
-0.6185772	two nine six </s>	0
-0.52603894	six nine six </s>	0
-0.45258415	four nine six </s>	0
-0.5608031	oh nine six </s>	0
-0.5277289	three nine six </s>	0
-0.76605976	<s> seven six </s>	0
-0.57475185	one seven six </s>	0
-0.47187716	zero seven six </s>	0
-0.42504242	nine seven six </s>	0
-0.6637267	seven seven six </s>	0
-0.56995475	five seven six </s>	0
-0.67019606	eight seven six </s>	0
-0.92350286	two seven six </s>	0
-0.56962776	six seven six </s>	0
-0.5011473	four seven six </s>	0
-0.7651308	oh seven six </s>	0
-0.47187716	three seven six </s>	0
-0.70310825	<s> five six </s>	0
-0.71180224	one five six </s>	0
-0.42170197	zero five six </s>	0
-0.8824932	nine five six </s>	0
-0.8740152	seven five six </s>	0
-0.45401508	five five six </s>	0
-0.45401508	eight five six </s>	0
-0.9078493	two five six </s>	0
-0.62409735	six five six </s>	0
-0.9553558	four five six </s>	0
-0.71180224	oh five six </s>	0
-0.5035132	three five six </s>	0
-0.7139399	<s> eight six </s>	0
-0.35799715	one eight six </s>	0
-0.633783	zero eight six </s>	0
-0.5798788	nine eight six </s>	0
-0.48108584	seven eight six </s>	0
-0.46892315	five eight six </s>	0
-0.37304765	eight eight six </s>	0
-0.36216962	two eight six </s>	0
-0.8661823	six eight six </s>	0
-0.21244457	four eight six </s>	0
-0.69928515	oh eight six </s>	0
-0.5707867	three eight six </s>	0
-0.6746461	<s> two six </s>	0
-0.39304417	one two six </s>	0
-0.6578181	zero two six </s>	0
-0.42359293	nine two six </s>	0
-0.45868823	seven two six </s>	0
-0.3450836	five two six </s>	0
-0.46611628	eight two six </s>	0
-0.73004913	two two six </s>	0
-0.28511724	six two six </s>	0
-0.83976036	four two six </s>	0
-0.475398	oh two six </s>	0
-0.43705586	three two six </s>	0
-0.7213744	<s> six six </s>	0
-0.4564215	one six six </s>	0
-0.66379887	zero six six </s>	0
-0.50450927	nine six six </s>	0
-0.42190433	seven six six </s>	0
-0.4434195	five six six </s>	0
-0.566211	eight six six </s>	0
-0.5368853	two six six </s>	0
-0.9302427	six six six </s>	0
-0.852625	four six six </s>	0
-0.4763954	three six six </s>	0
-0.609221	<s> four six </s>	0
-0.52370304	one four six </s>	0
-0.5433301	zero four six </s>	0
-0.31686306	nine four six </s>	0
-0.5495173	seven four six </s>	0
-0.36588037	five four six </s>	0
-0.36758304	eight four six </s>	0
-0.46710822	two four six </s>	0
-0.8277191	six four six </s>	0
-0.69370335	four four six </s>	0
-0.6056215	oh four six </s>	0
-0.887894	three four six </s>	0
-0.7700229	<s> oh six </s>	0
-0.6535636	one oh six </s>	0
-0.7435124	nine oh six </s>	0
-0.8241203	seven oh six </s>	0
-0.5635334	five oh six </s>	0
-0.7500969	eight oh six </s>	0
-0.41266906	two oh six </s>	0
-0.7142818	six oh six </s>	0
-0.3732579	four oh six </s>	0
-0.43888444	oh oh six </s>	0
-0.52502763	three oh six </s>	0
-0.57985634	<s> three six </s>	0
-0.7168556	one three six </s>	0
-0.54673195	zero three six </s>	0
-0.52107704	nine three six </s>	0
-0.4999957	seven three six </s>	0
-0.46130383	five three six </s>	0
-0.94903994	eight three six </s>	0
-0.58779424	two three six </s>	0
-0.7056714	six three six </s>	0
-0.5572262	four three six </s>	0
-0.44151282	oh three six </s>	0
-0.6212432	three three six </s>	0
-0.53810203	<s> one four </s>	0
-0.6464516	one one four </s>	0
-0.52990913	zero one four </s>	0
-0.8983463	nine one four </s>	0
-0.3275354	seven one four </s>	0
-0.6464516	five one four </s>	0
-0.34737384	eight one four </s>	0
-0.648395	two one four </s>	0
-0.57899976	six one four </s>	0
-0.39751416	four one four </s>	0
-0.46479434	oh one four </s>	0
-0.64411384	three one four </s>	0
-0.7196746	<s> zero four </s>	0
-0.29220298	one zero four </s>	0
-0.4109488	zero zero four </s>	0
-0.49587065	nine zero four </s>	0
-0.49587065	seven zero four </s>	0
-0.68277115	five zero four </s>	0
-0.83902556	eight zero four </s>	0
-0.6108086	two zero four </s>	0
-0.4364233	six zero four </s>	0
-0.4230299	four zero four </s>	0
-0.8149298	three zero four </s>	0
-0.6920086	<s> nine four </s>	0
-0.65766835	one nine four </s>	0
-0.53296494	zero nine four </s>	0
-0.9187068	nine nine four </s>	0
-0.53296494	seven nine four </s>	0
-0.6306463	five nine four </s>	0
-0.6443067	eight nine four </s>	0
-0.93706936	six nine four </s>	0
-0.5563507	four nine four </s>	0
-0.3666517	oh nine four </s>	0
-0.34139758	three nine four </s>	0
-0.73579735	<s> seven four </s>	0
-0.4185019	one seven four </s>	0
-0.45308575	zero seven four </s>	0
-0.7280861	nine seven four </s>	0
-0.32784232	seven seven four </s>	0
-0.46574557	five seven four </s>	0
-0.70290047	eight seven four </s>	0
-0.6778269	two seven four </s>	0
-0.2312018	six seven four </s>	0
-0.530287	four seven four </s>	0
-0.43417323	oh seven four </s>	0
-0.7117483	three seven four </s>	0
-0.6411707	<s> five four </s>	0
-0.7036597	one five four </s>	0
-0.47187716	zero five four </s>	0
-0.5614453	nine five four </s>	0
-0.4971775	seven five four </s>	0
-0.49486685	five five four </s>	0
-0.41858393	eight five four </s>	0
-0.8143872	two five four </s>	0
-0.56410706	six five four </s>	0
-0.4392125	four five four </s>	0
-0.38407135	oh five four </s>	0
-0.8703164	three five four </s>	0
-0.54712486	<s> eight four </s>	0
-0.41741085	one eight four </s>	0
-0.67922246	zero eight four </s>	0
-0.3993713	nine eight four </s>	0
-0.4709612	seven eight four </s>	0
-0.81185573	five eight four </s>	0
-0.61329544	eight eight four </s>	0
-0.60137796	two eight four </s>	0
-0.6213072	six eight four </s>	0
-0.5193288	four eight four </s>	0
-0.54255	oh eight four </s>	0
-0.66204447	three eight four </s>	0
-0.730572	<s> two four </s>	0
-0.51396155	one two four </s>	0
-0.6364109	nine two four </s>	0
-0.74430394	seven two four </s>	0
-0.33167943	five two four </s>	0
-0.9248886	eight two four </s>	0
-0.35835412	two two four </s>	0
-0.22617126	six two four </s>	0
-0.6364109	four two four </s>	0
-0.6933965	oh two four </s>	0
-0.4955615	three two four </s>	0
-0.7592138	<s> six four </s>	0
-0.85304886	one six four </s>	0
-0.48221773	zero six four </s>	0
-0.62476486	nine six four </s>	0
-0.40930393	seven six four </s>	0
-0.5650137	five six four </s>	0
-0.5406869	eight six four </s>	0
-0.6258579	two six four </s>	0
-0.6258579	six six four </s>	0
-0.49682143	four six four </s>	0
-0.65514636	oh six four </s>	0
-0.48759007	three six four </s>	0
-0.5639521	<s> four four </s>	0
-0.6844496	one four four </s>	0
-0.75924075	zero four four </s>	0
-0.5958768	nine four four </s>	0
-0.5376247	seven four four </s>	0
-0.41631168	five four four </s>	0
-0.52865934	eight four four </s>	0
-0.71852523	two four four </s>	0
-0.6014123	six four four </s>	0
-0.6469506	four four four </s>	0
-0.4632144	oh four four </s>	0
-0.5635563	three four four </s>	0
-0.61800456	<s> oh four </s>	0
-0.49157578	one oh four </s>	0
-0.47596645	nine oh four </s>	0
-0.5753156	seven oh four </s>	0
-0.61357826	five oh four </s>	0
-0.542379	eight oh four </s>	0
-0.81764084	two oh four </s>	0
-0.30292878	six oh four </s>	0
-0.5534029	four oh four </s>	0
-0.6505502	oh oh four </s>	0
-0.36149484	three oh four </s>	0
-0.8060942	<s> three four </s>	0
-0.47761184	one three four </s>	0
-0.5469695	zero three four </s>	0
-0.52579165	nine three four </s>	0
-0.66204447	seven three four </s>	0
-0.42223203	five three four </s>	0
-0.4868616	eight three four </s>	0
-0.66204447	two three four </s>	0
-0.6790699	six three four </s>	0
-0.59117365	four three four </s>	0
-0.6518063	oh three four </s>	0
-0.7017551	three three four </s>	0
-0.6778573	<s> one oh </s>	0
-0.5862156	one one oh </s>	0
-0.44587934	nine one oh </s>	0
-0.49958572	seven one oh </s>	0
-0.5030609	five one oh </s>	0
-0.49081582	eight one oh </s>	0
-0.5867882	two one oh </s>	0
-0.63665915	six one oh </s>	0
-0.69818056	four one oh </s>	0
-0.5621224	oh one oh </s>	0
-0.735806	three one oh </s>	0
-0.7689008	<s> nine oh </s>	0
-0.4684272	one nine oh </s>	0
-0.6262097	nine nine oh </s>	0
-0.94606197	seven nine oh </s>	0
-0.9001424	five nine oh </s>	0
-0.8811661	eight nine oh </s>	0
-0.47915047	two nine oh </s>	0
-0.41968784	six nine oh </s>	0
-0.5908234	four nine oh </s>	0
-0.6951167	oh nine oh </s>	0
-0.92547804	three nine oh </s>	0
-0.7775129	<s> seven oh </s>	0
-0.2552049	one seven oh </s>	0
-0.6390169	nine seven oh </s>	0
-0.46979937	seven seven oh </s>	0
-0.571777	five seven oh </s>	0
-0.9427919	eight seven oh </s>	0
-0.8966914	two seven oh </s>	0
-0.34437	six seven oh </s>	0
-0.90033054	four seven oh </s>	0
-0.46089035	oh seven oh </s>	0
-0.7272907	three seven oh </s>	0
-0.7105899	<s> five oh </s>	0
-0.57609487	one five oh </s>	0
-0.72949886	nine five oh </s>	0
-0.71338564	seven five oh </s>	0
-0.7905054	five five oh </s>	0
-0.6360207	eight five oh </s>	0
-0.7861728	two five oh </s>	0
-0.477345	six five oh </s>	0
-0.30768108	four five oh </s>	0
-0.55231744	oh five oh </s>	0
-0.5279343	three five oh </s>	0
-0.7284658	<s> eight oh </s>	0
-0.48126292	one eight oh </s>	0
-0.47446463	nine eight oh </s>	0
-0.33005494	seven eight oh </s>	0
-0.8812697	five eight oh </s>	0
-0.44691706	eight eight oh </s>	0
-0.5814195	two eight oh </s>	0
-0.6915436	six eight oh </s>	0
-0.47848094	four eight oh </s>	0
-0.70549196	oh eight oh </s>	0
-0.48729545	three eight oh </s>	0
-0.5668815	<s> two oh </s>	0
-0.53903604	one two oh </s>	0
-0.7258445	nine two oh </s>	0
-0.5124383	seven two oh </s>	0
-0.63661575	five two oh </s>	0
-0.7867461	eight two oh </s>	0
-0.5283185	two two oh </s>	0
-0.8289533	six two oh </s>	0
-0.6315476	four two oh </s>	0
-0.49536723	oh two oh </s>	0
-0.67894924	three two oh </s>	0
-0.6199458	<s> six oh </s>	0
-0.60699606	one six oh </s>	0
-0.76123786	nine six oh </s>	0
-0.3611305	seven six oh </s>	0
-0.912061	five six oh </s>	0
-0.38175768	eight six oh </s>	0
-0.8226527	two six oh </s>	0
-0.8778728	six six oh </s>	0
